938 64
271 -0.27896914 0.012545499 -0.34326702 0.26655564 0.0050664176 -0.1701802 0.00084623665 -0.12226502 -0.09030106 0.16910261 0.09459241 0.35067338 0.06434564 -0.31316775 -0.10775792 -0.16915785 0.19195084 -0.13101314 -0.19389968 -0.14456843 -0.2796214 0.18483917 -0.051197667 -0.058943152 -0.102282085 -0.09968731 -0.00433227 -0.025966704 0.08814272 -0.031988412 0.043502767 0.21357836 -0.08562931 0.2617933 0.12977593 0.05982143 -0.23288816 -0.11111922 -0.040067032 0.025177004 0.22518407 -0.112559564 0.011335937 0.1880344 0.05519625 0.5424677 -0.17623688 -0.34120047 -0.014330095 -0.2945851 0.3836401 -0.07641526 -0.009905665 -0.16353433 0.34230033 -0.15616818 -0.00656585 0.068283 -0.11788426 0.1253147 0.09032494 -0.27625567 -0.40922177 -0.026639722
636 -0.32172698 -0.09829402 -0.23712464 0.10384012 -0.06880436 -0.07436448 0.0031226757 -0.18646613 0.13625899 0.21069635 0.06807467 0.16650894 0.09933464 -0.36065274 -0.20640823 -0.16337082 -0.014464496 -0.13102989 -0.10129724 -0.21800046 -0.20526883 0.09473093 -0.059120413 0.017274471 -0.10769097 -0.09292174 0.12164206 -0.09795428 0.06638229 -0.19339187 -0.029082172 0.13836622 -0.12980554 0.25977173 0.068613 0.05363375 -0.2708091 -0.033752225 -0.09129464 -0.063477494 0.23756167 -0.06649674 0.16407527 0.1883837 0.14894268 0.35174692 -0.19658315 -0.48300475 -0.23744804 -0.3186138 0.5552019 0.10128064 -0.10490153 -0.2402754 0.28712824 -0.14049862 0.19254799 -0.038098224 -0.22865266 0.13845487 0.04436489 -0.02858588 -0.5274816 -0.1251951
338 -0.30076772 0.06905535 -0.32313734 0.13969783 -0.30022436 -0.13230531 0.37593445 -0.2596674 0.10318588 -0.17366731 0.2536539 0.48326662 -0.012121826 -0.37997243 -0.20381427 -0.40441915 0.49820969 -0.02698737 -0.1241538 0.102503486 0.025939109 -0.2592593 -0.113397636 0.16493693 0.17701425 0.20528051 -0.020514106 -0.21168312 0.12769242 -0.18984765 -0.22263516 0.46002942 -0.14151089 0.39248785 0.38769367 -0.10696022 -0.43645632 -0.1313061 -0.42467865 0.01109732 0.14266922 -0.13657744 0.28667983 0.2984932 0.29921016 0.61344695 -0.17296734 -0.27539358 -0.10223305 0.067492925 0.11703356 -0.155062 0.1820956 -0.34989256 0.36866874 -0.009170971 0.13602445 0.11352706 -0.27363223 -0.043192506 0.101747 -0.16960904 -0.40580168 0.16093668
591 -0.23343323 0.113602966 -0.5495323 0.17434283 -0.2607473 -0.055757154 0.17039908 -0.29116422 -0.13945737 -0.050834797 0.42703894 0.4872027 -0.07260355 -0.2700302 -0.23309432 -0.53703845 0.60473365 -0.15905334 -0.35553333 0.10934588 0.03916098 -0.4423061 -0.23413748 0.06184935 0.15177467 0.20757087 -0.077185236 -0.12654078 0.22859184 -0.13225074 -0.16290285 0.47119597 -0.15320373 0.31915516 0.41305757 -0.22383006 -0.4781792 -0.06532602 -0.37224326 0.09313245 0.06972065 -0.06543351 0.41200867 0.25092787 0.26335868 0.6584877 -0.26357648 -0.20446192 -0.14248934 0.08938432 0.20944841 -0.28891957 0.27923942 -0.37585115 0.32514912 -0.03957556 0.16002361 -0.08288269 -0.24316974 0.3097073 -0.09006383 -0.18621804 -0.4795322 0.10632172
842 -0.49179494 0.19169863 -0.21034606 0.010753697 -0.12424399 -0.12477517 -0.046641126 -0.06155318 0.14894445 -0.10833082 0.22286099 0.40037367 -0.009793378 -0.42227247 0.055126663 -0.2151417 0.28454956 -0.17070025 -0.0020448177 -0.26730937 -0.13676272 0.24311064 -0.005635553 0.11300497 -0.1078257 -0.0628269 0.12590455 -0.008506119 -0.062684536 -0.005304999 0.1102545 0.14718626 -0.13701482 0.20395754 0.010787491 0.028485758 -0.10545697 -0.120606676 -0.043928444 -0.12054654 0.1803627 -0.123273104 0.027110461 0.15664488 0.13165812 0.34882787 -0.14377615 -0.35276076 -0.19565628 -0.2768378 0.35963556 -0.13678113 -0.0028878371 -0.14429948 0.41462043 -0.16977644 0.043491937 -0.22907193 -0.19779526 0.23375252 0.020987611 -0.18626902 -0.46008024 -0.01920687
852 -0.5275269 0.02756505 -0.2381599 0.22357802 -0.014476434 -0.114536576 0.18664484 -0.11264719 0.01377454 -0.05338612 0.098053105 0.2686778 -0.04297439 -0.2809013 -0.12373405 -0.03707034 0.14417773 -0.14416507 -0.22271873 -0.2537096 -0.12994635 0.22047152 -0.017527541 0.036145337 -0.122429974 -0.047366567 0.09931061 -0.1743215 0.026772829 -0.14907102 0.08250817 0.10977485 -0.060136326 0.30852968 -0.12722367 -0.031034458 -0.16291523 0.027084494 0.16368465 0.112502694 0.23055339 -0.052705936 0.08469884 0.1730669 0.05646464 0.43224743 -0.23309493 -0.391725 -0.16861714 -0.2982467 0.34234297 -0.19105524 -0.054498415 -0.19513832 0.48646542 -0.17627637 -0.016494505 0.03725486 -0.07827495 0.1436858 -0.049822852 -0.19061047 -0.5314111 0.0051519354
408 -0.2621604 0.1342449 0.18795088 -0.009445564 0.07527596 -0.18028809 -0.16511731 -0.09119918 -0.24489823 -0.14575341 0.0036239754 0.094456896 -0.27380198 -0.5828347 -0.4176986 -0.25979882 0.270513 -0.20276177 0.17831105 -0.6080658 -0.109474175 0.38596743 -0.6826625 0.4283625 -0.18742222 0.23189981 -0.09555738 0.35470498 -0.077818036 -0.28497204 -0.39422002 -0.0674066 -0.27819875 0.07883603 0.086662754 -0.16683793 -0.37773672 -0.22856207 -0.20685485 -0.06819702 0.62075835 0.39458334 0.055003762 0.5215647 0.37211418 0.20093998 -0.29600838 -0.65248877 0.106781274 -0.11520231 0.6678728 -0.15352485 -0.010365819 -0.09039404 0.08216549 0.18745744 0.2591729 0.004748971 -0.2558579 -0.66241425 -0.3854385 0.44840044 -0.87740684 0.2487143
260 -0.19669548 0.15713026 -0.23561862 0.048971333 0.05949317 -0.081502244 -0.19479205 0.14316033 0.07960982 0.10824961 0.1523983 0.2731922 -0.12298849 -0.37835747 0.018213687 -0.3058131 0.11561515 -0.043797754 0.04469469 0.019869462 -0.30379823 0.26958907 0.08676043 -0.011587647 -0.18947735 -0.111672975 0.27395904 0.01373041 0.060263712 0.041142892 -0.034102038 0.14514107 -0.13511477 0.30105957 0.027445342 0.13854945 -0.05308643 -0.17044371 -0.009384098 0.0125547005 0.11101368 -0.298798 0.039780788 0.3127561 0.07408503 0.35144317 -0.17816576 -0.4646872 0.1529116 -0.055464987 0.49580342 -0.2845631 -0.13139983 -0.16139455 0.45751432 -0.47599196 -0.02997466 -0.20580028 -0.12210892 0.23645465 -0.22566459 -0.09328693 -0.44951862 -0.07154212
697 -0.6454533 0.053024244 -0.26765704 0.34492564 0.056800053 0.005067658 -0.40355825 -0.14299668 -0.030287616 0.17008892 0.17035483 0.44953802 0.1822929 -0.09233073 -0.3675899 -0.3551154 0.11251428 0.20306884 0.3314464 -0.11029832 -0.31430084 0.13620281 0.49467844 0.4539051 -0.3517655 -0.26457945 0.18159579 -0.5623337 0.085001126 -0.025976665 0.10076827 0.5475929 0.07366864 -0.08771338 0.009232805 -0.23817247 -0.015714033 -0.35302207 -0.06820806 -0.09341459 -0.0024258147 -0.13728908 0.18223225 0.48313925 -0.15024237 0.2710563 -0.07641878 0.02831811 0.13485223 -0.013058169 0.34930494 -0.25787088 0.21617907 0.10553652 0.4395696 -0.14413594 -0.1827046 0.12901996 -0.3548489 -0.31462678 -0.41125628 -0.01837415 -0.14653374 0.15928589
976 -0.16356783 0.08223313 -0.1735769 0.12418586 0.021232938 -0.18310975 0.20191948 -0.06887654 0.06896154 0.07978111 -0.037820973 0.43428916 0.007658702 -0.3042352 -0.016220776 -0.21491976 0.39203355 -0.029480562 -0.14646675 -0.12005435 -0.37398008 0.1319381 -0.0067118756 -0.02254004 0.031040592 -0.110595055 0.10407158 -0.12838417 -0.032454867 -0.010450586 0.056882434 0.30709293 -0.09998937 0.2809111 0.10078397 0.25548404 -0.2521179 -0.22414339 0.20577127 0.11514207 0.05564553 -0.16513796 0.10443286 0.15813261 0.08330174 0.320967 -0.32202682 -0.42200783 -0.17861825 0.035771146 0.23463969 -0.0024866438 -0.0538313 -0.11092883 0.37618083 -0.25936207 -0.102913514 -0.0073319473 0.021087224 0.23422506 -0.20727235 0.15552922 -0.5049995 0.023341939
74 -0.4366648 0.05859901 -0.14218153 0.053153876 -0.08954898 0.043135986 0.01564289 -0.111874804 -0.08626661 0.05193799 -0.07745787 0.37905642 -0.11398602 -0.19344766 -0.14282872 -0.27967533 0.24851625 -0.06423449 -0.03345789 -0.10542099 -0.16730253 -0.044136975 -0.083767414 0.06362482 -0.26588047 -0.15727803 0.041533906 0.12808417 0.068294704 -0.03137716 0.16091906 0.19556005 -0.03873929 0.12559575 0.19788396 0.09283741 -0.2681961 -0.24949184 0.1453039 -0.10946677 0.1208812 -0.07737956 0.0352933 0.18491854 0.10553224 0.2724532 -0.23067017 -0.32129648 -0.08944933 -0.050199747 0.3890746 0.07593463 -0.12714215 -0.038943943 0.32806617 -0.17393544 0.05987965 -0.001507184 -0.35143408 0.009337348 -0.1646187 -0.16465665 -0.47795153 -0.03992181
532 -0.5658925 0.029180933 -0.35277283 0.074520074 -0.07010896 0.012695048 0.052291285 -0.22537296 0.07920673 0.05952395 0.0013634127 0.34672853 -0.007147179 -0.24314134 -0.057349186 -0.20065455 0.23215647 -0.04793354 -0.14224647 -0.11211419 -0.14886084 0.11255811 -0.15254575 -0.024931675 -0.10375381 -0.101796106 -0.026069632 -0.1129788 -0.07330041 -0.11032587 0.14638372 0.0358065 -0.16529441 0.34234768 0.09306153 0.072033055 -0.106124595 -0.1262284 -0.034884382 0.0315949 0.19817401 -0.08698238 0.087975174 0.21056569 0.11822038 0.36663666 -0.23042332 -0.33854204 -0.16513658 -0.27518868 0.42598748 -0.025390716 -0.18694389 -0.04564257 0.3260195 -0.02291186 -0.003534281 -0.0039081792 -0.0921573 0.22080292 0.023014339 0.06954131 -0.48458004 -0.0015525544
607 -0.32615495 0.0069065536 -0.263523 0.07528774 0.06495065 -0.11381198 -0.008413955 -0.22691473 0.0798747 0.031148316 0.11538998 0.34226018 -0.042597044 -0.23631214 -0.12865703 -0.31833443 0.23567602 -0.0041302717 -0.2641183 -0.30361158 -0.15447466 0.26981878 -0.2935106 0.052795555 -0.16893518 -0.25368318 0.15327218 -0.04656628 0.12531741 -0.053075597 0.007545868 0.23521204 -0.055848088 0.27525324 0.060212765 0.15222743 -0.14095213 -0.22904007 0.12557285 0.020886378 0.003171114 -0.11169772 0.07572401 0.23946291 0.035643082 0.2656177 -0.1575383 -0.35023305 -0.045442775 0.084792845 0.20728165 0.044974063 -0.04866821 0.01937763 0.19409569 -0.21810825 0.053861517 -0.11224993 -0.17671701 0.00985432 -0.06665007 -0.08301885 -0.31783643 -0.03931152
359 -0.16431968 0.10406602 -0.22556542 0.1624748 -0.1028873 -0.13511221 0.103578776 0.14217995 0.10510876 0.031101642 -0.07865039 0.23828508 -0.04631255 -0.23596965 -0.06620646 -0.17568527 0.27679607 0.0007165582 -0.007179429 -0.24374883 -0.35870746 0.17085198 0.031911533 0.048025355 -0.1385544 -0.12748185 0.16079377 -0.10906985 -0.021474343 -0.13810979 0.030957412 0.14745037 -0.07140034 0.3209141 0.09195848 0.26412606 -0.37626013 -0.034660175 0.13461915 0.038641635 0.19082393 -0.070110425 0.14451978 0.29349846 0.2284489 0.30855212 -0.28951368 -0.372995 -0.0019106044 -0.18036819 0.431638 -0.014511309 -0.046868566 -0.1743433 0.35186917 -0.21185069 -0.040971056 0.01891769 -0.017002461 0.056319136 -0.23621073 0.0147524215 -0.41783333 0.12104904
131 -0.20703608 -0.07353431 -0.37949237 0.06834562 0.03615164 0.028376272 0.036970604 -0.03903085 0.0047248 0.07284056 -0.2692992 0.56737214 -0.034288693 -0.36805475 -0.0654134 -0.23456424 0.29444513 -0.21136996 -0.20396829 0.010029502 -0.19128332 0.20327373 -0.07751729 0.1484947 -0.21644872 -0.122119024 0.16809104 -0.12993917 0.07715631 -0.056213964 0.030226937 0.21910328 -0.047717962 0.22208898 0.10803916 0.13404764 -0.18677832 -0.11562834 -0.06735555 -0.018973604 0.12316291 -0.0341977 -0.0061948285 0.052310366 0.30000007 0.34756652 -0.2333069 -0.54494673 -0.25754347 -0.28540972 0.22403517 -0.07070149 -0.14248574 0.010501876 0.33933043 -0.053825926 0.13051718 0.27890483 -0.19113559 0.15216058 -0.13103402 0.032496598 -0.39215237 -0.18491852
76 -0.1966975 0.19180113 -0.41429174 0.05112614 0.30462703 -0.22666436 -0.18425913 -0.4085255 0.4329913 0.028991679 -0.053840555 0.43310645 0.25745428 0.029093059 0.3372442 -0.42802486 0.2804452 0.060065832 0.020264776 -0.0733553 -0.7561515 0.2975807 -0.3849386 -0.059558094 -0.1943256 0.0048309905 -0.08123992 0.085999265 -0.021021683 -0.14320986 0.15282121 -0.036798816 0.16400678 0.55116594 0.0687406 0.09951691 -0.3070953 -0.25657067 0.3236379 0.14175704 -0.096664935 -0.30752125 0.36130872 -0.14286138 0.27317533 0.09242424 -0.055115957 -0.30399907 0.20211658 -0.20354812 0.03996812 -0.3345954 -0.069692254 -0.60307753 0.28554162 -0.43859404 0.1457679 0.37812567 -0.21139024 -0.13438103 -0.56307936 0.1534953 -0.6298298 0.19421235
774 -0.30915323 0.06276753 -0.5316077 -0.08111296 0.22056368 -0.067259334 -0.17918524 -0.39241654 0.3209992 0.036970127 -0.06752292 0.2424166 0.22998273 0.09260373 0.05414028 -0.33341986 0.4026359 -0.046696197 0.035909075 -0.008693734 -0.7945782 0.26929426 -0.4305266 -0.011209355 -0.36778557 0.05654045 -0.28495628 0.1629439 0.029411323 -0.30919963 -0.0041287486 0.16714522 0.20105068 0.4367682 0.1709678 0.021172918 -0.11354553 -0.050482173 0.29565632 -0.031973083 0.077851914 -0.26228264 0.16564016 -0.24407336 0.35467446 0.024312198 -0.089641385 -0.39710084 0.2447828 -0.08761163 0.27236003 -0.36147052 -0.060613364 -0.5241122 0.23683362 -0.5279497 0.29414538 0.3714564 -0.27310362 -0.0730919 -0.5407243 0.17567112 -0.5566751 0.30562264
134 -0.39960924 0.17267793 -0.03854003 0.10407098 0.31183657 -0.17004557 -0.17495291 -0.030666567 -0.25315684 -0.19248663 -0.23861879 0.26500392 -0.21133845 -0.4974642 -0.37295678 -0.11061298 0.42845258 -0.24065606 0.18306193 -0.60658085 0.08082591 0.4687809 -0.5809916 0.18137123 -0.4435462 0.23462377 -0.034054782 0.40484977 0.0525077 -0.08348282 -0.3224585 -0.06699033 -0.2631323 -0.03439007 0.13839933 -0.14691874 -0.29767883 -0.16727838 -0.23462518 -0.0925125 0.47803968 0.39994285 -0.066915125 0.63618267 0.15174398 0.31288248 -0.1731415 -0.60911465 0.121714085 -0.08253775 0.37371084 -0.25516057 0.1206877 0.00041980558 -0.08913664 0.045052707 0.030101143 0.07854021 -0.265548 -0.5037561 -0.3716787 0.29843843 -0.7735585 0.1463631
653 -0.46243545 -0.13759106 -0.29069453 0.52980906 0.124259874 -0.22668315 -0.06489983 -0.052707944 0.22083089 0.2518926 0.064062126 0.47322264 0.26612163 -0.15495668 -0.20391993 -0.1153351 0.33115673 0.18361102 -0.118394315 -0.15840042 -0.4986877 0.20367143 0.44811317 0.16270821 -0.19362496 -0.3212165 0.16883284 -0.24928236 0.017299624 -0.068861805 0.008037597 0.33255896 -0.047119807 -0.07373315 -0.15121979 -0.03928938 -0.16220365 -0.20326123 -0.059691213 0.070202656 -0.04070468 0.034828786 -0.037531797 0.047913287 0.047940217 0.3263879 -0.23209763 -0.15668835 -0.15704592 -0.053071506 0.5000379 -0.18094717 0.16224633 0.023564711 0.37157094 0.06782642 -0.5064933 0.0512867 -0.19611286 -0.13943261 -0.21067372 -0.108035274 -0.49506408 0.1384831
690 -0.23716211 0.2429857 -0.48658824 0.09533715 0.2478719 -0.04042295 -0.08160383 -0.3165032 0.4604886 0.01662496 0.009342034 0.14215364 0.26808232 -0.2784878 0.019109104 -0.4083553 0.3511713 -0.07589494 -0.024941232 0.0035969678 -0.6649342 0.37889484 -0.37875906 -0.05130128 -0.006312874 0.03159762 -0.20928311 0.29286557 0.00359539 -0.15433769 0.17487639 0.08491671 0.20562308 0.3226574 -0.10097626 0.18758334 -0.17174886 -0.045313027 0.23530944 0.12523876 -0.037619144 -0.06620378 0.15167558 0.0070406324 0.38741785 0.061798286 -0.0027006068 -0.42594516 0.08029174 -0.012741003 0.159016 -0.24351202 -0.0331381 -0.57734674 0.36416227 -0.5101597 0.061264932 0.32933876 -0.3128117 0.11517733 -0.4066752 0.120654725 -0.56212735 0.32719016
135 -0.39494592 -0.1487281 -0.24279481 0.24291319 0.00434613 -0.47036365 -0.23303667 -0.05163159 0.41022715 -0.0798472 0.16810015 0.22323474 0.09993164 -0.24703869 -0.04735842 -0.33668688 0.14114504 0.07460821 -0.43125185 0.12248327 -0.27750152 0.065241836 0.2294678 0.015762208 -0.13902244 -0.13863912 0.14312446 -0.19375096 0.019383466 -0.055606265 0.016858 0.024894254 -0.19841549 0.36176208 0.104585305 0.18485484 -0.1939682 -0.21849187 0.11449182 0.40836492 0.20213388 0.01196038 -0.013539106 0.16818886 0.24464157 0.43493256 0.06830483 -0.5277332 -0.16404799 -0.14000344 0.5856083 -0.16840793 0.15697363 0.0142463865 0.27259833 -0.0057140384 -0.012545685 0.053460777 -0.3859453 0.108767375 0.08620547 -0.13850616 -0.5708852 -0.18436919
614 -0.33800513 0.014517602 -0.01982842 -0.13861339 0.05617512 -0.14091896 0.08127144 0.04803445 -0.21233673 -0.25290337 0.120794624 0.3144175 -0.045319613 -0.31088024 -0.34713358 0.30347642 0.13732482 -0.08435351 0.052121136 -0.23646943 -0.53282803 0.21818864 -0.6436263 0.07641244 -0.22118062 0.058565464 0.17795166 0.21640362 0.03521768 -0.159701 -0.23457184 -0.09808582 -0.29593903 0.30983278 0.2200176 -0.047791567 -0.15057437 -0.42658594 -0.064952746 0.12708616 0.1401848 0.06214038 0.035874598 0.31695226 0.29334027 0.1882451 -0.0810069 -0.3691198 -0.00033073899 -0.34950426 0.3884486 -0.116996326 0.13314554 -0.3156986 -0.052050855 -0.054376427 0.20923142 -0.1516072 -0.102123305 -0.47221002 -0.34563 0.080632344 -0.6207279 0.13708974
651 -0.3606105 0.15946148 -0.07867127 0.005075556 0.22464748 -0.25155687 -0.23971526 -0.012303477 -0.31309068 -0.22847567 -0.20778401 0.23361315 -0.057634227 -0.52562904 -0.35074922 -0.030224089 0.28609163 -0.2525358 0.38664728 -0.63160723 -0.28882706 0.46014267 -0.6981778 0.3200925 -0.29015648 0.27175197 -0.09775443 0.2238873 -0.024384316 -0.25148436 -0.46343285 0.048470363 -0.12515968 0.038553845 0.19566129 -0.13833468 -0.25808412 -0.24967313 -0.33330703 -0.0371852 0.40662768 0.23276426 -0.09277654 0.57671714 0.38986593 0.12641738 -0.1800328 -0.57503885 0.12151251 -0.1533416 0.4331983 -0.09467009 0.1261446 -0.007058611 -0.08362474 0.051584527 0.17729968 -0.18306148 -0.26571792 -0.7721975 -0.49677765 0.44888303 -0.8379095 0.2158599
88 -0.42176557 0.025793593 -0.31914762 0.04832634 -0.13979207 0.009166369 0.042413805 -0.05889542 0.13758422 -0.03044497 0.08397123 0.35848433 0.009634122 -0.24997334 -0.11139513 -0.21672504 0.20161907 -0.051844314 -0.18945129 -0.03214667 -0.22660513 0.0026487987 -0.16424505 0.0771085 -0.14577125 -0.022197103 0.06871378 -0.017279666 0.19095297 -0.091468155 -0.055696722 0.26164922 0.09216897 0.30408716 0.20250134 0.091339685 -0.2421747 -0.10303055 -0.09661351 -0.021418493 0.043191493 -0.13523574 0.05604441 0.21181555 0.2498415 0.27868366 -0.33202928 -0.22563376 -0.08583925 0.079428464 0.28730196 0.06872532 0.07381905 -0.1175805 0.27625102 -0.19343983 0.15829323 0.016595405 -0.28887033 0.08531201 -0.03736037 -0.083940625 -0.5018429 0.078839816
787 -0.19872996 -0.012729175 -0.2969071 0.10999279 -0.036657866 -0.023638364 -0.1774712 -0.20375668 0.1317592 0.13044901 0.092980966 0.06848452 -0.050502554 -0.46757874 0.021606537 -0.24394815 0.24049161 -0.15201698 -0.3359054 -0.13161232 -0.3897995 -0.040809937 -0.41119918 -0.027837483 -0.23489144 0.17047907 -0.004468864 0.20848522 0.092415705 -0.31654477 0.056627378 0.39249405 -0.23855552 0.19178575 0.03090434 -0.014612432 -0.19723716 -0.1889784 0.073182456 0.034439392 -0.033100937 0.07103135 0.19777144 0.29585323 0.02318843 0.35386968 -0.21083972 -0.10957987 -0.123731084 -0.06050386 0.25289363 -0.0906876 -0.006235408 -0.19370747 0.1576628 -0.20355855 0.17408004 -0.20462112 -0.07553221 -0.06176479 -0.31871316 -0.21764651 -0.46666887 0.0718111
605 -0.110173434 0.044849712 -0.19104151 0.08960075 0.011215451 -0.16940425 0.1624637 -0.09108422 0.12075192 0.057640687 0.051451754 0.3612777 0.042092744 -0.48024577 -0.041747477 -0.29935175 0.3904817 -0.08060196 -0.09299581 -0.21979609 -0.3197317 0.24283122 -0.19111829 0.09603761 -0.03427849 -0.25020093 0.16024858 -0.120095335 0.06609212 -0.061835535 -0.06741467 0.12053001 -0.09987935 0.27507496 0.032598875 0.07852573 -0.1660883 -0.15816125 0.018372446 0.12025963 0.14459349 -0.12714809 0.027649038 0.15513359 0.16971235 0.4215145 -0.2038788 -0.39507973 -0.10822066 -0.091910236 0.3415252 -0.058240376 -0.10510263 -0.11904552 0.30926165 -0.18153098 -0.06528037 -0.11407776 0.052684717 0.17965531 -0.03408824 -0.026449129 -0.36779335 -0.12379205
678 -0.45383203 -0.2063589 -0.088761196 0.010353022 -0.025067737 -0.27676073 0.16121344 -0.3573055 -0.08982967 0.04068126 0.10954071 0.44437775 -0.051132593 -0.30569464 0.05218383 -0.1349481 0.20649643 0.04266207 -0.22189777 -0.5172699 -0.25191358 0.36083692 -0.32997912 -0.040905643 -0.019942783 -0.1977333 0.34591308 0.04669812 0.25414675 -0.3193687 -0.031500712 0.24118282 0.15799657 0.16235815 -0.013575483 0.30562624 0.18650776 -0.111539535 0.027244674 -0.06395992 -0.073806666 -0.385005 0.1578343 0.38197228 0.028832886 0.39953128 -0.26600575 -0.46811682 -0.13261662 0.17558596 0.101285025 0.0144132 -0.0333941 0.04770936 0.052778065 -0.3062283 0.07298681 -0.08060124 -0.069584236 -0.06727162 -0.1256608 0.0036804832 -0.38578165 0.038024675
643 -0.013287554 -0.04900195 0.03746375 -0.13236949 0.07070733 -0.121633664 -0.14140515 -0.16031234 -0.3716675 -0.17562118 -0.08485484 0.18342598 -0.1609517 -0.3252475 -0.41352764 -0.26372582 0.14947028 -0.36051083 0.3595274 -0.78787994 -0.36826473 0.34790632 -0.79341155 0.2485872 -0.051566713 -0.094218574 -0.18091689 0.19390124 0.0738511 -0.06560778 -0.25778586 -0.064305544 -0.18904032 -0.0049478044 0.16457596 -0.061959546 -0.5253559 -0.18247093 -0.18241356 0.10268161 0.30141154 -0.033210088 -0.068449885 0.24743837 0.41949564 0.28132784 -0.24784638 -0.54288924 0.031526893 -0.35093302 0.38609546 -0.038249206 -0.00032804796 -0.14931299 -0.048814215 0.06713827 0.040553667 -0.14476398 -0.32400975 -0.78558767 -0.62181437 0.16141433 -0.6290426 0.14709556
298 -0.46403483 0.1392808 -0.42317006 0.5413673 -0.026037022 0.07398739 -0.43322605 -0.14469174 0.06322507 0.18662831 0.13117798 0.28892037 -0.059476484 -0.110103175 -0.27125973 -0.16023684 0.027885407 0.065285504 0.1951062 0.08168923 -0.3605762 0.24727936 0.4656029 0.35555074 -0.44915533 -0.3701923 0.22704868 -0.22849561 -0.029324159 -0.16167605 -0.1532502 0.34340838 0.0129187135 0.24400632 -0.037481 -0.20113024 -0.06564809 -0.53288746 -0.13687101 -0.1297469 0.031011768 -0.025007388 0.21168199 0.4089512 0.07814203 0.34561542 -0.18336822 -0.10828036 0.041750237 -0.095330104 0.64982903 -0.43095136 0.2616195 -0.03043374 0.35966748 -0.1394344 -0.003222185 0.036126677 -0.17804241 -0.073459506 -0.08630599 -0.3144449 -0.08070554 0.41965926
84 -0.459841 -0.032289922 -0.2499773 0.15665083 0.01797472 -0.24456568 0.07141291 -0.20605657 0.12580979 0.08612503 0.19193292 0.45797545 0.15346628 -0.43019405 0.05231172 -0.27995262 0.09292077 -0.08770847 -0.13861859 -0.3948155 -0.12180948 0.12130422 -0.02372886 -0.08951772 -0.14181426 -0.10630266 0.039530408 -0.20170115 0.15881589 -0.07040389 0.019427776 0.06204797 -0.31665692 0.15543269 0.297518 -0.016554903 -0.11893256 -0.044831287 -0.042248126 -0.07692855 0.14411315 -0.057555452 0.11356945 0.09129142 0.14422941 0.41998762 -0.17264867 -0.25083837 -0.120578684 -0.40942994 0.41770005 0.011807151 -0.0074517834 -0.15655959 0.42081258 -0.16540486 0.04466825 -0.017768728 -0.2389125 0.15387252 -0.03268201 -0.047683768 -0.49634117 -0.19640474
947 -0.5814391 -0.007654615 -0.031271745 0.061989184 -0.010372924 0.014599736 0.25703698 0.012628286 0.18620823 -0.116230525 -0.18454875 0.35779956 -0.31800058 -0.0393866 -0.058361467 -0.36428976 0.27892488 -0.0024314444 0.32852322 -0.37118703 -0.19716014 -0.26071396 -0.008896153 -0.27679762 -0.19349489 -0.29990384 -0.022591684 0.33258814 0.43373913 -0.016841304 0.5132682 -0.0071280426 -0.08701234 0.09039517 -0.079218574 0.21762203 -0.46558598 -0.32548714 0.07904499 -0.22603595 0.27274105 -0.37732306 -0.1829352 0.21857855 0.31716084 0.43517607 -0.196045 -0.42434332 -0.057983063 0.01013216 0.5282811 0.11761834 -0.013652271 -0.1072949 0.34508076 -0.2367647 -0.22445753 -0.12086742 -0.32516268 -0.022873793 -0.39082414 -0.175454 -0.46891385 0.10035767
558 -0.1449466 0.21874435 0.004079378 0.15621753 -0.014848116 0.043261625 0.049719036 -0.09765578 0.027534487 0.06967781 -0.14674301 0.42804855 -0.083078094 -0.3298115 -0.17854401 -0.25343668 0.34254867 -0.15413648 -0.0034333668 0.15296853 -0.39893886 0.11758019 -0.15959631 -0.11539171 -0.1663932 -0.045186006 0.14103806 0.0042745373 0.27182385 0.03825153 -0.040161375 0.01956395 -0.11534197 0.24285583 0.18411583 0.22122517 -0.23708685 -0.26289198 0.10359264 0.076587684 0.21398418 -0.08685542 0.0509118 0.0402528 -0.16012138 0.2011832 -0.55297065 -0.15611354 -0.3564445 0.18511459 0.111555755 0.14657116 -0.047387175 -0.061535917 0.34104827 -0.38318342 0.101989314 0.27460572 -0.23444454 0.10396783 0.0007365461 -0.088586174 -0.85097003 0.13099484
71 -0.20538644 0.22686492 -0.31287625 -0.016823824 0.21834984 0.059730235 -0.15865988 -0.28999043 0.5624147 0.1558464 -0.17592284 0.32984886 0.27024895 -0.007926418 0.27447394 -0.45668387 0.4626655 0.03898942 0.1877798 0.08767129 -0.73255754 0.30717516 -0.33952275 0.058397207 -0.25654155 -0.13876617 -0.16047685 0.23820053 -0.0023611656 -0.18552501 0.121647686 -0.024728572 0.22167183 0.46488953 -0.08462177 0.07463002 -0.3285712 -0.23167057 0.2581123 -0.12519616 -0.0085185785 -0.1264132 0.2589821 -0.14428641 0.42606834 0.10945908 -0.14015505 -0.3245824 0.29359403 -0.07990922 0.07116728 -0.36841315 -0.16048862 -0.6326315 0.40245998 -0.40740156 0.3368966 0.32370785 -0.18161735 0.007984201 -0.31812373 0.20393707 -0.6352343 0.2970868
132 -0.35394266 0.23456182 0.033093538 0.0031793534 0.12592314 -0.1432996 -0.13448961 0.128639 -0.15979542 -0.18779084 -0.20631191 0.13204288 -0.13523702 -0.63073605 -0.24457237 -0.051743135 0.3442671 -0.26118234 0.37832576 -0.72157824 -0.3353479 0.38095772 -0.8111376 0.34931016 -0.2776492 0.2970979 -0.18187103 0.24392453 0.0042940904 -0.23632777 -0.34936383 -0.04919704 -0.26501802 0.13101828 0.17088583 -0.12138412 -0.35622996 -0.25920922 -0.36495784 0.081171036 0.4431415 0.3255833 -0.15581708 0.48239195 0.3794221 0.1374435 -0.35044825 -0.57223403 0.07192124 -0.2174215 0.4271401 -0.038997747 0.06497888 -0.026177106 -0.08510054 0.06553396 0.14417687 -0.1360067 -0.13819493 -0.5843146 -0.41295585 0.4875972 -0.9205921 0.14157225
86 -0.4499184 0.0869022 -0.16699451 0.17350964 -0.0538649 -0.058012288 0.12468536 -0.1918781 -0.020695304 0.070671156 0.023493035 0.3714424 -0.025462482 -0.41792575 0.041817047 -0.18190083 0.2702592 -0.040131386 -0.1625057 -0.120092995 -0.22660124 -0.010135062 -0.12478904 0.12373172 -0.10218124 -0.054217685 0.083097875 -0.07150755 0.019962775 -0.08947435 0.07313463 0.20721284 -0.15166183 0.20610745 0.16196531 -0.08075916 -0.17838514 -0.2690464 0.07018355 0.09825088 0.05311414 -0.1452657 0.101573646 0.18881616 0.00049702066 0.4156192 -0.22693025 -0.37879226 -0.17317276 -0.067132674 0.31171444 0.0046177763 -0.077607885 -0.18026026 0.33502173 -0.11248488 -0.060509536 0.06251124 -0.022031901 0.21785744 -0.09289078 -0.08617539 -0.4549693 -0.020043124
265 -0.2932605 -0.09710061 -0.36795676 -0.16745488 0.11747279 -0.121826984 0.026406236 -0.2728327 -0.031438667 0.2978297 0.17481413 0.2236553 -0.06769477 -0.25124395 -0.078053646 -0.08735929 0.2533644 0.011340103 -0.06550748 -0.3176094 -0.27604172 0.2730966 -0.18623294 0.003791687 0.002327323 -0.37958238 0.1456433 -0.0759051 0.15801303 -0.055991836 -0.14507443 0.31387988 0.03395317 0.11367118 -0.040786933 0.18798235 -0.021963317 -0.112948954 0.07897825 -0.09214343 0.06462112 -0.23110297 0.18518658 0.23035315 0.049542338 0.41816548 -0.3444865 -0.51361835 -0.097055145 0.18472475 0.35108596 -0.0133861415 -0.2697065 0.116422385 0.3253789 -0.3134775 -0.11946458 -0.28347534 0.078070596 0.15761986 -0.19974992 0.020433735 -0.34548864 -0.15024635
133 -0.4217276 -0.10969849 -0.30779913 0.061148908 0.0070906347 -0.32809684 -0.15825745 -0.02730475 0.068182446 0.044017047 -0.048560765 0.33847734 0.034113392 -0.11977084 -0.120977946 -0.2225401 0.2317427 0.042295773 -0.19625998 -0.0055091917 -0.2776941 0.20341432 0.06552032 0.088147946 -0.29082415 -0.16094315 0.13374153 -0.0666625 0.066718005 0.05641215 -0.10569504 -0.06867141 -0.07128959 0.44311044 0.18245171 0.019655975 -0.10784859 -0.087839365 -0.028043814 0.27205127 0.17999992 -0.053714633 0.06008624 0.15093648 0.15649614 0.35041687 -0.09323178 -0.41657662 -0.07119443 -0.22435765 0.48847267 -0.0873631 -0.068948664 0.12352042 0.29422352 0.050483283 0.027002484 0.054695312 -0.35654116 0.18080749 -0.021333288 -0.18676353 -0.5806385 -0.030284539
402 -0.43675867 0.22022304 0.059729904 0.02808297 0.23939529 -0.24344504 -0.17523181 -0.045815423 -0.3241416 -0.20229311 -0.19355458 0.2770147 -0.18309186 -0.54903376 -0.3379498 -0.10531568 0.25849277 -0.25752234 0.4292442 -0.6241684 -0.36749926 0.42772055 -0.71998703 0.37608173 -0.2450255 0.31648836 -0.14019859 0.19535221 -0.011264473 -0.1616066 -0.42766827 -0.08982533 -0.25109425 0.02121061 0.16777626 -0.17011109 -0.36792076 -0.27715194 -0.37154615 0.018038308 0.49315414 0.30404335 -0.1787524 0.44249788 0.28360274 0.150422 -0.25712222 -0.5303014 -0.040380113 -0.030093374 0.36513913 -0.052333236 0.120888084 0.040249802 0.01972502 0.20473783 0.013111788 -0.09377259 -0.16792327 -0.810827 -0.42412066 0.48656246 -0.9800041 0.21953359
53 -0.026398342 -0.108813636 0.09560939 0.0053823455 0.18040057 0.121335 -0.018367147 -0.16435681 0.12382329 -0.0019771755 -0.48361233 0.49062908 0.08987564 -0.4175262 0.16379735 -0.38402542 0.4186762 0.23837411 -0.050745927 -0.40102795 0.052852325 0.2728006 -0.5576776 -0.100005314 -0.40907252 -0.31897295 -0.051502045 0.10635529 0.33347362 -0.2719131 0.3497851 0.046454422 -0.4868012 0.46370813 0.32432133 0.18344341 0.15634446 -0.20489198 0.14844069 0.0080649 0.43033853 0.35776123 0.11872858 0.0639907 -0.1207101 0.2766142 -0.09766098 0.24369544 -0.19764274 -0.004075148 -0.04348079 -0.43301496 0.13353594 0.29995498 0.54104525 -0.53761625 0.31366187 -0.19040279 -0.4653711 0.16855276 -0.05619989 0.17312102 -0.20939697 0.00070384715
414 -0.43272766 0.21602523 0.0556497 -0.031142334 0.15414666 -0.2264148 -0.13345635 0.13563824 -0.28141472 -0.17305237 -0.1435953 0.087433085 -0.19164298 -0.4714645 -0.3462829 -0.20979069 0.34109202 -0.33830693 0.40341255 -0.7591596 -0.27621135 0.4136642 -0.701649 0.4044381 -0.32349 0.22499378 -0.24288575 0.20261183 0.03868206 -0.39226416 -0.39725804 0.0010041958 -0.2260716 0.012406211 0.122980185 -0.31146345 -0.25418246 -0.18449798 -0.39060006 -0.021490432 0.48990604 0.3500715 -0.04871066 0.48662946 0.37414268 0.18862063 -0.278054 -0.48190513 0.104381345 -0.22047976 0.48860836 -0.12383936 0.09252649 0.036919322 0.06149714 0.11340571 0.10415706 -0.11953594 -0.27738366 -0.7796112 -0.41569042 0.41873983 -0.72633654 0.14130828
921 -0.34533182 0.5371057 0.0133360755 0.19393107 0.043526076 0.07989025 -0.06028174 -0.19675167 0.0027610844 0.15102766 -0.10814698 0.3652848 -0.11291167 -0.52583987 -0.32642937 -0.46335092 0.23488718 -0.080245875 -0.020087773 0.20581856 -0.7347172 -0.1517529 -0.37574124 0.17992857 -0.09831451 -0.020538514 -0.10980002 -0.050856862 0.27920872 0.10633143 -0.18647163 -0.3186143 -0.051693603 0.11118259 0.34451526 0.031264596 -0.06574984 -0.31841734 -0.19256073 0.14541619 0.6327807 -0.032401696 0.15380238 -0.04280805 0.04225315 -0.08836437 -0.63217366 0.05448967 -0.594561 0.684455 0.058916576 0.27745128 -0.034586355 0.40667036 0.71686757 -0.55281705 0.084956095 0.27748248 -0.38404298 -0.26150656 0.13553484 0.042421833 -1.265134 -0.13996133
157 -0.16809438 0.087416545 -0.20931756 0.4437006 0.11275045 0.13347104 -0.44664922 0.15025729 -0.06269769 -0.039412588 0.28575078 0.29671845 0.052668363 -0.052297197 -0.3574628 -0.21762398 -0.08546625 0.27110824 -0.016895777 -0.09277021 -0.44772625 0.23074168 0.1640822 0.35336033 -0.39159343 -0.20856458 0.15655522 -0.581599 -0.017168634 -0.26095405 0.2814208 0.3314595 0.4553622 0.28869516 -0.22745542 -0.101674065 0.10044624 -0.45218238 -0.28562096 0.069331 0.1064879 -0.030547636 0.35681996 0.3261533 -0.10079351 0.5928233 -0.053263318 0.016311878 0.2772778 -0.0044532516 0.21703808 0.07138159 0.0906258 0.14545716 0.34443834 -0.02905638 -0.23270553 -0.11100786 -0.11565504 -0.32504117 -0.3097254 -0.19119 -0.3924895 0.28244597
60 -0.29029968 0.042993654 -0.3647861 0.03204074 -0.08907886 -0.03929197 -0.015125106 0.061595738 -0.080047406 -0.0067321616 -0.04380508 0.47246954 -0.029970627 -0.24903688 -0.028436674 -0.25609332 0.13544527 -0.14841156 -0.045631893 -0.14636712 -0.26873028 0.12243447 -0.009847424 -0.0015673912 -0.21722277 -0.065019436 0.13032813 -0.067420416 0.16334678 0.09916827 0.15555362 0.22514774 -0.0022804302 0.24077727 0.18723348 0.1339314 -0.2944618 -0.069241636 -0.02856232 0.03284909 -0.006517455 -0.1709725 0.15485479 0.13858528 0.21800187 0.33633196 -0.34470722 -0.42977372 -0.0589951 -0.13003443 0.245079 0.07530681 -0.0036905673 -0.018906368 0.29006413 -0.1887237 0.057981495 -0.07480541 -0.30538356 0.099978894 -0.23395236 -0.1273596 -0.45503452 -0.07464858
467 -0.4104634 0.055967785 -0.5444558 0.07263 0.18983753 0.13620874 0.16999182 0.14284065 0.47251076 0.08152935 0.025879499 0.5777708 0.31349084 0.46193013 0.06447097 -0.16777565 0.2706206 -0.48395523 0.20165968 -0.0607487 -0.08475762 -0.028073654 -0.08334124 -0.20277432 0.25838453 -0.20285136 -0.4297173 -0.17290078 0.054997683 -0.22564511 -0.007681733 0.30048588 -0.04571702 0.5205844 0.32226327 -0.19886322 -0.6080201 -0.52799284 -0.06664646 0.1837076 0.45086926 -0.35729232 0.09598572 0.45891327 -0.06701793 0.2703549 -0.3484593 -0.19693057 0.29633072 -0.36798185 0.2958124 -0.27662 0.22600257 0.064368546 0.43422186 -0.2531506 0.43927175 -0.059991445 -0.12748018 -0.39103153 0.22922821 0.13303615 -0.05233094 0.39932346
263 -0.26141244 0.028296908 -0.35519284 -0.04704446 0.053319383 -0.17039709 0.08481798 0.14011155 0.10325505 0.11661225 -0.0056001106 0.43197978 -0.019176029 -0.32515347 0.10858263 -0.25729063 0.26743764 -0.19685365 0.021936694 -0.17209712 -0.28882438 0.26209328 0.049430598 0.025523063 -0.099421054 -0.2175338 0.16910096 -0.030424243 0.12522991 -0.08640847 0.10843973 0.3208863 -0.16700897 0.21900862 -0.1703193 0.037292663 -0.31536737 -0.11316573 -0.10173767 -0.12603784 0.17812498 -0.20257261 0.03755858 0.06818714 0.20481665 0.31494048 -0.09467063 -0.43199807 -0.08589737 -0.09629819 0.401644 -0.22407433 -0.07595252 -0.0732219 0.5292107 -0.24441944 -0.11679154 -0.10919314 0.035294447 0.25223047 -0.28639087 0.100707404 -0.39432216 -0.16884652
459 -0.38920686 0.44845757 -0.021883495 0.24085069 0.023171684 0.04316863 -0.08062517 -0.28905156 -0.14825496 0.14252256 -0.11167864 0.20404719 -0.15538041 -0.54912114 -0.2640966 -0.3662447 0.25811246 -0.03733554 0.028504837 0.07072411 -0.69101477 0.037499268 -0.30098155 -0.018982202 0.043154053 -0.043745782 -0.110287406 0.085928045 0.2651283 0.20963463 -0.21752869 -0.16741632 -0.046277158 0.27392152 0.29055208 0.19979668 0.01693706 -0.28630838 -0.2452916 0.1911174 0.6890054 -0.021860624 0.25378823 0.084794216 -0.0028320926 -0.0037922384 -0.5967043 0.112943515 -0.5913268 0.7970512 -0.1099261 0.10415249 -0.11021498 0.4830493 0.6096271 -0.6145216 -0.13203827 0.27708042 -0.3084033 -0.300492 0.13102405 0.16359882 -1.0004069 -0.010891148
202 -0.23100176 0.12453645 -0.02329132 -0.115752526 0.20915873 -0.023795139 0.10234289 0.0155200595 -0.26854187 -0.2582063 0.1134382 0.16514525 0.01658433 -0.41704497 -0.5239085 0.13368477 0.35825893 -0.19075878 0.18309696 -0.48354363 -0.48157677 0.24986474 -0.6755974 0.2990611 -0.16072617 -0.0040237266 -0.07343698 0.39962775 0.08463275 -0.16971314 -0.28524354 0.016739909 -0.22214279 -0.010982444 0.21020077 -0.10940894 -0.13082114 -0.2703746 -0.15673427 -0.038611136 0.36571386 0.21128176 -0.008669599 0.3569231 0.34641194 0.068106994 0.02703045 -0.6370772 -0.016377518 -0.14115794 0.56319296 -0.20245196 0.059954356 -0.13257882 -0.10260374 0.037226904 0.15505293 -0.16494568 -0.120744474 -0.51239336 -0.32065246 0.4090343 -0.6738503 0.17834407
613 -0.38898543 -0.013494119 -0.008715464 0.23936062 -0.16434637 0.08150715 0.31509903 0.025736641 0.13486525 0.0045103477 -0.09948546 0.43919024 -0.15381332 -0.07540765 -0.13198756 -0.35984597 0.3140706 -0.17545326 0.10796366 -0.004253094 -0.43816605 -0.20892982 -0.049905922 -0.21803507 -0.23637392 -0.47091734 0.050141767 0.42491487 0.44017842 -0.11135606 0.3248321 0.027635638 0.064149566 0.14147542 -0.15009724 0.0817972 -0.6233961 -0.2926348 -0.00432382 0.12333758 0.14310126 -0.19661053 -0.2818095 0.14709206 0.43782198 0.3146572 -0.082378596 -0.32986408 0.01777451 -0.28903434 0.36377686 -0.10519339 0.11315984 0.027957316 0.3361341 -0.22729184 -0.13302661 -0.32386014 -0.23406911 0.052916773 -0.22900514 -0.086696036 -0.56830376 -0.10124716
13 -0.16465117 0.23483372 -0.4363787 -0.15639333 -0.2549586 -0.13973658 -0.08549482 -0.22500126 0.10389611 0.22430307 -0.07203963 0.5500566 -0.30060938 -0.087780334 0.0068681673 0.034731068 0.19666941 0.068733566 -0.08546698 -0.23438206 -0.18445319 0.15584473 -0.053560715 0.09324468 -0.1839123 -0.17944145 0.1042032 -0.19726191 -0.027788918 0.18068361 0.16851076 0.41232926 -0.028751874 0.11594648 0.2764057 0.3510027 -0.5624655 0.05677827 0.045848973 0.21822864 0.25688478 0.016350001 0.19211283 0.29375318 0.14657682 0.15572941 -0.17405769 -0.59461737 -0.013000668 -0.14955148 0.010302059 0.064491585 0.25237805 0.15568545 0.13526443 -0.3488104 0.000817281 0.13071655 -0.42145956 -0.08531714 0.15772478 0.085668236 -0.29207158 -0.011630583
810 -0.2718014 0.041026853 -0.06663732 -0.02061768 -0.20853168 -0.12639286 0.050517384 -0.26770222 -0.051318984 0.06282166 0.21443668 0.332037 0.083122455 -0.030774323 -0.056331325 -0.09134303 0.1742457 -0.22960354 -0.051593274 -0.40938994 -0.2282785 0.30312124 -0.21415178 0.13561745 -0.132824 0.11611114 0.14037824 0.20234957 0.05169362 -0.045120355 -0.06955011 0.4140709 -0.12635654 0.49559823 0.20125724 0.027599314 -0.27960008 -0.25196213 -0.051801782 0.16504978 0.16443075 -0.08904146 0.30164653 0.049441133 0.0728934 0.45240045 -0.3450074 -0.23909101 -0.1894566 -0.12579125 0.16606201 0.060413226 -0.17354994 -0.08629209 0.3095398 -0.25476715 -0.17489077 0.035439182 -0.14227681 -0.043892004 -0.2375521 -0.23959984 -0.2129266 -0.10294222
1003 -0.0026846502 0.29543534 0.16823585 0.2738528 0.1991824 0.14052494 -0.3217223 -0.0037996836 -0.28429765 0.18897037 0.4544311 0.38130608 0.26799485 0.11009633 -0.12244362 -0.30752116 -0.29000372 0.2303288 0.08715563 -0.19238742 -0.30194077 0.098871864 0.1286228 0.73270047 0.042680357 -0.21181048 -0.122939214 -0.42347178 0.07298922 -0.24481519 0.3710869 0.4256731 0.40340832 0.3556877 -0.14036469 -0.259149 0.3722889 -0.52112037 -0.54534286 0.19965582 0.108117014 -0.33914056 0.17691213 0.28350762 0.12479112 0.39840895 0.27745518 -0.06387575 0.1601259 -0.057636775 0.31712633 -0.19501838 -0.02483665 0.19414699 0.6651395 -0.13355629 -0.07761828 0.14866205 -0.081463344 -0.31148276 -0.14260364 0.23817556 -0.2903084 -0.022686733
786 -0.47569576 0.21494856 0.03909901 -0.13404553 0.013447331 -0.10256094 0.115833014 -0.08374179 0.021037765 0.103652276 0.005121104 0.29351538 -0.16543128 -0.48853052 -0.1087322 -0.11199838 0.55189335 0.19326495 0.21544334 -0.4837186 -0.32922247 0.2841049 -0.3826328 0.11273877 -0.18142577 -0.07608821 -0.050520312 0.09933782 0.14552909 -0.17404939 -0.27550203 0.037522603 -0.15235995 0.18178357 0.22262363 -0.04006505 -0.14284389 0.03228692 -0.29799688 0.29955986 0.18959995 0.1957139 -0.09209402 0.18183853 -0.018035686 0.111736946 -0.18760553 -0.36641437 -0.03999641 0.0043419977 0.3559349 0.040379897 -0.20356415 0.13550995 0.102575414 -0.06268482 0.12814598 -0.14400125 -0.30982962 -0.27371225 -0.045253213 0.35598448 -0.47386795 -0.00022044464
404 -0.28171036 0.111588426 0.053413786 -0.12867704 0.15037504 -0.3227171 -0.052420057 0.16719435 -0.24003291 -0.08314215 -0.17818914 0.055469148 -0.1699315 -0.5017585 -0.27336234 -0.16027762 0.35588777 -0.24524637 0.2831063 -0.61370784 -0.37578997 0.37004 -0.6879458 0.28796026 -0.20604733 0.19616172 -0.24319133 0.1368932 0.02205431 -0.3498288 -0.4314754 -0.0077528697 -0.299238 0.16334178 0.18077579 -0.22271527 -0.2540974 -0.28940287 -0.27666283 0.05411053 0.4358671 0.32153508 -0.08308949 0.5115499 0.2973647 0.083634295 -0.3437431 -0.5488556 0.116234615 -0.12457225 0.52631265 -0.10720618 0.080730386 0.09099039 -0.072102115 0.084198944 0.31960168 -0.07472603 -0.2697849 -0.8530082 -0.4080293 0.4300795 -0.89116573 0.043833826
23 -0.38854763 0.07827438 -0.3302385 0.58164936 0.03123459 0.06227271 -0.42706895 -0.13941881 -0.009126321 0.20940967 0.10851033 0.40966123 0.11972731 -0.13042054 -0.32460788 -0.23453225 0.08099965 0.09267386 0.2842532 -0.018200476 -0.50047815 0.21947117 0.3780579 0.41298884 -0.49101147 -0.50045186 0.14650953 -0.42073804 0.030986765 -0.056797266 -0.010590413 0.43482196 0.2289704 0.033184253 0.043161694 -0.21627298 -0.08444226 -0.605572 -0.21266119 -0.14573129 -0.0023799397 -0.0108413445 0.38179678 0.45646444 -0.015929356 0.25174764 -0.075169176 -0.007096856 0.078988686 -0.050473932 0.37052768 -0.09233492 0.17715405 0.09432775 0.35996765 -0.10306826 -0.18264237 0.036640186 -0.18677327 -0.2529043 -0.1520637 -0.112397894 -0.07135547 0.43275675
944 -0.31221935 0.2148434 -0.49119216 0.07400929 0.2201975 0.14954214 -0.23058113 -0.17567904 0.5385495 0.05909485 -0.058122218 0.26041824 0.3839903 0.12827641 0.06489061 -0.32400578 0.3254335 -0.20311585 -0.15753211 -0.056958456 -0.643101 0.22768934 -0.4016077 0.048561163 -0.1727459 0.06845152 -0.29675952 0.1838637 -0.12992617 -0.079446204 0.012202415 0.025542963 0.30041823 0.40411887 0.017460283 -0.1397114 -0.17820168 -0.13986379 0.21540643 0.12403746 -0.054276038 -0.20261642 0.2892287 0.009870005 0.23455127 -0.0459827 -0.008150187 -0.28887326 0.13585338 -0.15707093 0.12177799 -0.2386999 -0.04353795 -0.5299921 0.50246817 -0.6093853 0.13441965 0.3406303 -0.37959737 -0.021998284 -0.4408966 -0.06447918 -0.4883825 0.33152857
413 -0.41593492 0.12108148 0.00800231 -0.05097859 0.23668674 -0.25197566 -0.28999943 -0.062816076 -0.24645683 -0.2532541 -0.08354548 0.2780423 -0.16360171 -0.42066267 -0.4339735 -0.12873265 0.4120385 -0.28945592 0.34388715 -0.70364815 -0.25839072 0.40802363 -0.79267424 0.34414813 -0.3494975 0.29683372 -0.14195153 0.26806557 -0.00061556813 -0.40589195 -0.4207877 -0.014231066 -0.25941387 -0.042865083 0.14644277 -0.19010442 -0.2474827 -0.240955 -0.3663282 0.07436757 0.48514235 0.34300146 -0.09659441 0.5320095 0.39858037 0.24950466 -0.20353784 -0.5738504 -0.060342513 -0.14723289 0.4868014 -0.12555741 0.31464773 0.0038402206 0.04821402 0.22425868 -0.0029510246 -0.17672491 -0.24912684 -0.7529318 -0.3099991 0.47947034 -0.81849205 0.24895853
642 -0.21995734 -0.0025641369 -0.088005334 -0.07499638 0.19801469 -0.25390223 -0.21318579 0.16546687 -0.28209102 -0.14515585 -0.17375201 0.15544848 -0.1581559 -0.63374025 -0.2161062 -0.09074446 0.3335328 -0.30242878 0.32690215 -0.6091971 -0.20349453 0.42054775 -0.75933856 0.26874462 -0.2929659 0.26496106 -0.28276423 0.008371442 -0.061364528 -0.30929056 -0.395518 0.16905193 -0.2605902 0.09281885 0.0955684 -0.2506941 -0.22327863 -0.30548272 -0.35219732 0.12780525 0.34554002 0.3497567 -0.19187866 0.6399336 0.2612453 0.20177831 -0.24976784 -0.6291449 0.105250366 -0.18162833 0.42142093 -0.10924327 0.14471999 0.112649135 -0.030999914 0.18403625 0.3094714 -0.15993623 -0.28946677 -0.8057805 -0.40434447 0.5369263 -0.8645695 0.18489411
536 -0.47346023 0.08076304 -0.3390046 0.18561752 0.011266057 -0.039217092 -0.15414195 0.017976696 -0.008403858 0.06257288 0.13271342 0.20943214 -0.00093068636 -0.39819416 -0.012245859 -0.28322354 0.28303385 -0.21950455 -0.0804986 -0.033601996 -0.16808125 0.13530952 -0.20590822 -0.0036271082 -0.14974418 -0.035778817 0.026079835 -0.108572 0.0170922 -0.10359595 -0.09944051 0.056135736 -0.3293641 0.42271107 0.15743272 0.09170768 -0.11204757 -0.061422136 -0.056503594 0.12856847 0.1616149 -0.2035525 0.1544847 0.23587307 0.057509415 0.49339542 -0.40628093 -0.27240312 -0.18145323 -0.4682554 0.4166509 -0.040697455 -0.18230183 -0.17519864 0.43389305 -0.11289878 0.013754738 -0.025373572 -0.0671187 0.16944155 0.066615894 -0.017688636 -0.33135504 -0.06538078
606 -0.19100007 -0.04246214 -0.10170402 0.20260641 0.052980717 -0.16907188 -0.085497126 -0.094433725 0.16219424 0.1091948 0.08047627 0.27447677 0.029180959 -0.33254284 -0.07888238 -0.16943856 0.19622107 0.12539873 -0.2491983 -0.0876117 -0.3670937 0.043938063 -0.10876247 -0.044353206 -0.12213889 -0.13476938 0.1049127 0.18101944 0.16830415 -0.01971859 0.026120692 0.0039619855 -0.013260241 0.19614042 0.29495478 0.15681781 -0.32457742 -0.081069216 0.039103102 0.2683605 0.10394763 -0.028865146 0.09594963 0.061193287 0.18597774 0.48147604 -0.22563817 -0.30903438 -0.025306975 -0.0563973 0.41635665 0.13518101 0.069245204 0.0365902 0.30710113 -0.24885434 -0.15071389 0.20494528 -0.28486946 0.06386339 -0.07925524 -0.21568547 -0.594196 -0.022700557
626 -0.25201574 -0.26045594 -0.1628316 -0.13224132 -0.21754469 0.07840504 -0.27986947 0.0062011373 -0.057689246 -0.13817446 0.2984917 0.3399609 0.24591981 -0.2511692 -0.20316267 -0.061292823 -0.052299596 -0.1897371 -0.035427622 -0.13134077 -0.5632027 0.44106174 -0.20184276 -0.054632016 -0.2833307 -0.21064603 0.12242982 -0.027039897 0.17471117 -0.24017559 0.11177163 0.3145662 -0.32288924 0.5273409 0.37598237 0.25653836 -0.18588571 -0.2519941 -0.07153068 -0.028928956 0.24430615 -0.08937012 -0.049104545 -0.1320517 0.66166383 0.11717787 -0.39627472 0.11064098 -0.20627901 -0.12836222 0.29189357 0.0045154993 -0.030232478 -0.41252738 0.04690071 -0.2300327 -0.080839485 0.18781802 -0.1253476 -0.022768136 -0.18202096 0.0044064596 -0.53996366 0.20278601
3 -0.05018128 -0.087653615 -0.09875128 0.26788667 0.05358345 0.19104992 -0.044507824 -0.23667526 0.15622203 -0.011467687 0.090550415 0.32290533 0.007070755 -0.31755608 -0.19611695 -0.3098872 0.38899532 -0.22467755 -0.20334573 -0.35288346 -0.4981572 0.12497688 0.08772252 0.37651727 0.052371074 -0.04966568 -0.07216342 0.11775813 0.24302958 0.3457141 0.087548465 0.14120112 -0.5201778 0.6701113 -0.1173741 0.13957913 -0.15001124 -0.10266585 -0.0686664 0.055094402 0.07857028 -0.41093096 0.051129654 0.3006162 0.108010605 0.2227861 -0.036492348 -0.6583831 -0.24371894 0.006118105 0.23578735 -0.23170958 -0.1379092 -0.06761871 0.0009586566 -0.18725604 0.08860424 0.11011243 -0.11929316 0.27137384 -0.30738762 0.27867714 -0.18167613 -0.0650384
475 -0.21006028 0.17475568 -0.22150551 -0.0003057202 0.08424462 0.19940305 0.117739335 0.0070912484 0.37945026 0.2377342 0.1049862 0.42222035 -0.0141298575 -0.2859171 -0.13192137 -0.1752278 0.15821932 0.19692151 -0.13523479 -0.034698103 -0.4136361 0.06498985 -0.24091968 0.03178526 -0.13213283 -0.22782548 -0.04518829 0.18173033 0.15652137 0.16155705 0.1704505 -0.017274719 0.07117887 0.27142197 0.2017186 0.19284685 -0.19016619 -0.09251217 0.20048878 0.042558465 0.24431 -0.20991485 0.16458055 0.15716222 0.32869974 0.09637146 0.014752508 -0.24508056 0.09579724 -0.034798622 0.4226695 -0.023663506 -0.27201945 -0.19056617 0.47657216 -0.27834323 -0.009111398 0.013321793 -0.2770933 -0.08213611 -0.43441224 -0.06879456 -0.5004712 0.23368098
604 -0.41539717 0.25331172 -0.22462294 0.09432119 0.16138983 0.03384936 -0.11872838 -0.096025065 -0.037141476 -0.023283472 0.14001858 0.2520987 0.20291843 -0.4127743 -0.13109885 -0.10160751 0.30815074 -0.3555742 -0.09100762 -0.052370854 -0.22007729 0.10535483 -0.08371594 0.015279765 0.15864277 -0.2937837 -0.034491885 -0.15333325 -0.0649076 -0.01429144 0.15182313 0.1573195 -0.22452977 0.10758878 0.21746428 0.07482657 -0.06827168 -0.1844761 0.116144046 -0.07323029 0.108663045 -0.2967283 0.091690086 0.28803754 -0.06981574 0.32602736 -0.42407525 -0.15304431 -0.15739694 -0.24157164 0.18804137 0.14578162 0.04853427 -0.07873797 0.41071147 -0.24764729 0.024775643 -0.06744951 0.0033009537 0.22346564 0.14945154 -0.086001895 -0.5240907 0.14452153
612 -0.698428 -0.0012527744 -0.2662141 0.4175382 -0.121036254 -0.014477059 -0.42909357 -0.23909405 0.04359285 0.262997 0.19634067 0.27175215 0.22430316 -0.15568328 -0.37938672 -0.3493489 0.080786884 0.08043783 0.36038372 -0.10759673 -0.325254 0.015009706 0.4125385 0.60258454 -0.31068084 -0.27146825 0.14732172 -0.48239407 0.032498736 -0.057380646 0.06435426 0.49743417 0.08794299 -0.07979168 -0.047799997 -0.38617727 -0.10273026 -0.54182535 -0.051912416 -0.07922232 0.04093179 -0.1961486 0.29698464 0.6188158 -0.14718409 0.25714836 -0.112364866 -0.00636702 0.031787224 -0.034108832 0.36146975 -0.27803648 0.2285226 -0.04405305 0.4162789 -0.16036057 -0.1796645 0.22937302 -0.3159171 -0.1316138 -0.34915322 -0.1313842 -0.04546358 0.27589658
512 -0.4861697 0.08544718 -0.514297 0.34183362 -0.060894307 0.07650013 0.16887885 -0.057160307 0.3323114 0.14433876 0.37278208 0.5933318 0.17943127 0.051439226 -0.13448133 -0.37505418 0.30535817 -0.16499798 0.06833457 -0.1926594 -0.14256224 -0.27242216 -0.032782305 0.09930133 0.17662844 -0.24952677 -0.33919933 -0.012912157 0.19986123 -0.16729651 -0.07282038 0.15610957 -0.014729355 0.075856134 0.42577818 -0.28926614 -0.5862088 -0.5199534 -0.097992934 0.15364589 0.30620918 -0.4478752 0.4518816 0.41972265 0.11085728 0.23505326 -0.43770373 -0.20641151 0.14160511 -0.22745302 0.30868047 -0.27439702 0.314155 -0.046897646 0.36237693 -0.09763545 0.14422293 -0.09314913 -0.211111 -0.30077517 0.20016524 0.01168727 0.15398374 0.52519834
77 -0.13067918 0.19445793 -0.429086 -0.05465298 0.2745816 -0.048198115 -0.019469652 -0.31219697 0.49646586 0.11817589 -0.109317675 0.27141333 0.27767432 0.009391 0.30066973 -0.53334254 0.31296754 0.053223096 -0.008311787 0.028144773 -0.7612092 0.27241442 -0.35662374 -0.022647096 -0.07031079 0.067717634 -0.21961962 0.12638909 -0.026629847 -0.13006891 0.113285966 0.10349593 0.21268596 0.531612 -0.06428579 0.05885239 -0.20114973 -0.1737259 0.23566404 0.07823687 -0.037128303 -0.26315904 0.28015348 -0.0866124 0.29325444 0.08280396 0.011783636 -0.5016481 0.23631506 -0.004955807 0.13071801 -0.41693217 -0.12512918 -0.61295426 0.42674416 -0.48468637 0.23271519 0.36523312 -0.2631929 -0.09295884 -0.52923495 0.18213314 -0.58348125 0.2625365
621 -0.38130352 -0.024575803 -0.09729538 0.120749764 -0.101073086 0.0027618543 -0.10386799 -0.11332009 0.11380439 0.11776186 0.087193035 0.34704253 0.033436064 -0.1303008 0.07923628 -0.06905022 0.057931688 -0.067965105 -0.12916721 -0.20615704 -0.32814273 0.08197025 -0.15398586 0.066498615 -0.20271046 0.078799985 0.23948857 0.36836553 0.035678912 -0.12498614 -0.08652011 0.3377119 -0.18476373 0.5320973 0.16029763 0.07622233 -0.2619657 -0.28359258 0.06771944 0.23766941 0.17550807 -0.1789291 0.10187831 -0.026877005 0.09668474 0.26267427 -0.3119297 -0.22326367 -0.088176474 -0.19615456 0.28864506 -0.098416634 -0.003375052 -0.15836173 0.4251259 -0.3222231 -0.21333328 0.13364002 -0.14673701 -0.19637357 -0.35241497 -0.17128764 -0.37291235 0.11613605
340 -0.5876275 -0.03492747 -0.17506358 0.1130554 0.10325285 -0.066139504 -0.13856792 -0.358911 0.23391107 0.012183571 0.08294306 0.37285057 0.17568105 -0.403107 -0.11378234 -0.2536029 0.35324615 -0.07453171 -0.21154909 -0.089728594 -0.04027653 0.1284131 -0.088097356 0.043530546 -0.13452154 -0.2820603 -0.13781261 0.13877468 0.13887322 -0.20705889 -0.14677392 0.25552025 -0.26864535 0.31488663 0.43728444 -0.0143110575 -0.26692593 -0.038114235 -0.19965975 0.062599145 5.265314e-05 -0.20311469 0.020984432 0.30061477 0.3889968 0.56252295 -0.28107417 -0.19661783 0.020706007 -0.18447997 0.14305699 -0.004452598 0.00041999956 -0.08367845 0.17796959 0.059528917 0.080132104 0.027037652 -0.22697172 0.25821525 0.021762194 -0.25281072 -0.4260506 -0.042733204
763 -0.33661467 0.62195307 -0.007383738 0.30285114 0.0688665 -0.029602168 -0.05159193 -0.22424303 -0.0066206874 0.07892177 -0.16275853 0.11950879 -0.13547674 -0.4118951 -0.25798902 -0.34016114 0.13607515 -0.14752924 0.13506508 0.040726647 -0.74082875 -0.13691628 -0.27379555 0.092162006 -0.005635511 0.02968504 -0.11011809 0.045356512 0.2546127 -0.033256028 -0.15801442 -0.30053282 -0.053649336 0.1138817 0.21118824 -0.008929039 -0.13532768 -0.3769114 -0.18550324 0.11792957 0.8304163 -0.10348505 0.14985964 0.02233951 0.08346084 0.06257122 -0.71097744 0.0057908893 -0.6318794 0.75557536 0.10653254 0.17129666 0.028335001 0.47282445 0.7209957 -0.5756677 -0.076501496 0.43405804 -0.28002048 -0.3509393 0.16717392 0.1292968 -1.3000039 -0.17709112
237 -0.26371711 0.035716724 -0.03497888 0.16832331 0.0950691 0.0098931035 0.04139166 -0.023349812 0.020403631 0.059701152 0.060565736 0.30657175 0.21867311 -0.25078353 0.10756652 -0.054655135 0.24263142 -0.24132663 -0.011045596 -0.1687968 -0.001481713 0.05961988 -0.05474575 0.03706494 -0.16120948 -0.30149433 -0.0785782 -0.0615851 0.11049587 -0.059888616 0.20550051 0.38121375 -0.027538335 0.1977201 0.22064203 -0.008902733 -0.14641982 -0.36719528 0.17891808 0.037824616 0.2550245 -0.084049135 0.14563768 0.25166488 0.024214387 0.25950745 -0.0803843 -0.39891002 -0.13325952 -0.1700811 0.1391663 -0.1754182 0.00043591845 -0.004480295 0.07554027 -0.1306471 0.07607528 0.07416789 -0.10213653 0.19708201 0.086729385 -0.11568766 -0.51298916 0.10511688
18 -0.33828232 -0.26606175 -0.3116821 0.27378866 0.19270474 -0.43920115 -0.2001559 -0.13145837 0.3886381 0.16761254 0.17985077 0.34348547 0.14641039 -0.16578569 0.107879415 -0.20550652 -0.021468714 0.25614518 -0.35557655 -0.064306095 -0.21322685 0.12808236 0.34483755 0.00761821 -0.03796334 -0.038087998 0.14650813 -0.17788196 0.07628205 0.0045253895 0.011186711 0.14480737 -0.28229034 0.21476251 0.2669595 -0.025524922 -0.22008759 0.02814901 -0.054147344 0.3352333 0.06468978 0.049360864 0.05134969 -0.10185689 0.18358774 0.57302344 -0.18848804 -0.5451329 0.004620014 -0.22071773 0.59996843 -0.23960966 0.1940035 0.13869886 0.4495239 -0.04663584 -0.26137424 0.22828436 -0.4570168 -0.14836307 0.00029782788 -0.14764987 -0.6677048 -0.15408066
814 -0.29466182 0.12355956 -0.014933723 0.024034007 -0.15143627 -0.18208006 -0.16200165 -0.052641015 0.07962922 0.097385466 0.32344165 0.47002757 -0.07912331 -0.18222293 -0.029067207 -0.32175738 0.17166793 -0.25563475 0.086280994 -0.21334743 0.015949875 0.38796422 -0.2971884 -0.0937525 -0.09420015 0.18087843 0.022223903 0.277447 -0.014507711 -0.013224901 -0.06491084 0.36170217 -0.12819663 0.41872728 0.16528636 0.27347574 -0.3279579 -0.7138627 -0.08807624 0.23769508 0.10657125 0.16112214 0.07248553 0.12676385 0.04819981 0.4740158 -0.09812586 -0.33612397 -0.19492733 -0.1089973 0.3229071 -0.040243685 -0.36662883 -0.17192754 0.23452443 -0.22266272 -0.24936867 0.26157948 0.08584098 0.16112028 -0.23404396 0.0002808952 -0.41477785 -0.13970292
784 -0.32927856 0.13296708 -0.21028212 -0.040649448 -0.1678042 0.038219813 -0.062411863 -0.15792158 0.12441936 -0.020950045 -0.03767155 0.21622123 -0.16247742 -0.32805738 0.15649222 -0.06605453 0.22572002 -0.09481929 -0.28037822 -0.3959388 -0.3281122 0.029237311 -0.4980741 0.21682201 -0.3631577 0.31419918 -0.04709465 0.20791003 -0.062140405 -0.17231315 -0.019212235 0.33600882 -0.107248925 0.40247613 0.027087472 -0.12050625 -0.28546694 -0.24798442 0.067874014 0.114466526 0.17736104 0.074483804 -0.056170482 0.29446456 0.03088242 0.26272637 -0.36925524 -0.3064018 0.016201641 -0.17889997 0.35982266 0.08059963 0.0041182055 -0.059002206 0.13295834 -0.012464047 0.053583827 -0.13507642 0.034057487 -0.2967757 -0.32664502 0.025242569 -0.28263545 0.092637375
64 -0.26345673 0.067999706 -0.27734092 0.00074810477 -0.029821074 -0.114349104 -0.14970936 0.046878096 0.10093212 0.08071947 -0.054911576 0.587825 -0.13732962 -0.2074834 0.021943385 -0.1917793 0.28698617 -0.09110143 -0.3244556 0.0039055971 -0.1595731 0.15577894 -0.06982627 0.07171092 -0.24465768 -0.013259219 0.26941076 0.0045433687 0.05857332 -0.07490259 0.046498366 0.32512623 -0.009419584 0.2375857 -0.12449413 0.21404892 -0.44807315 -0.038070407 -0.008654865 0.0066855303 0.13094485 -0.13031892 -0.0268571 0.08416259 0.11882537 0.29595038 -0.19760947 -0.6306025 -0.1900191 -0.109652705 0.32795066 0.007882689 0.16581458 0.04414731 0.29010358 -0.09857454 0.07262149 0.11987902 -0.25699937 0.11496283 -0.15184657 -0.0033961292 -0.5666104 -0.07149796
254 -0.014947104 0.012058714 -0.2091599 0.035851434 -0.03361428 -0.03662154 0.1564897 0.10077528 0.07339518 0.24704747 0.048038147 0.30687672 0.04008896 -0.48162404 -0.031951353 -0.1535964 0.39735296 -0.036225922 -0.0010479926 -0.16769274 -0.45767912 0.26919758 -0.012603534 0.0648492 -0.017836016 -0.23666617 0.08482783 0.02179817 0.07734192 0.040299892 -0.014369659 0.33437088 -0.20129901 0.31690353 -0.065956324 0.24269685 -0.23601812 -0.048758835 -0.022189321 0.02366258 0.2651036 -0.03713035 0.031073263 0.19145831 0.20665579 0.3261324 -0.2428974 -0.5301219 0.0413817 0.06043281 0.53216904 -0.25739622 -0.12965773 -0.10635811 0.35213983 -0.19856863 -0.23144323 -0.16709849 0.19319639 0.20080386 -0.39785504 0.15621045 -0.3436586 0.0043117185
537 -0.49130479 0.05565265 -0.3206075 0.11697209 0.014462614 -0.14957297 -0.016285233 -0.16482313 0.039931763 0.02921147 0.115885854 0.35765082 0.101846285 -0.36140707 -0.07555171 -0.30074373 0.20775495 -0.08575699 -0.07456528 -0.17792878 -0.25447857 0.14246115 -0.0042213197 -0.015888644 -0.07503154 -0.11732131 0.056389738 -0.14769715 0.0006668456 -0.19500712 0.047095075 0.088828355 -0.24928856 0.21129762 0.18365489 0.043510985 -0.06557511 -0.10313187 -0.038851004 -0.045299232 0.12054695 -0.24272694 0.14188416 0.16944154 0.12363156 0.46373495 -0.29643142 -0.1709882 -0.09400456 -0.270168 0.37644255 -0.03371267 -0.17588975 -0.19569014 0.41663036 -0.1760892 -0.0073696454 -0.03808865 -0.13637234 0.14122136 -0.09611446 -0.1043102 -0.41317028 -0.06559655
517 -0.30657473 0.17555399 0.116408415 -0.064428896 0.14111985 -0.24266857 -0.2094011 -0.002461752 -0.18895559 -0.21930936 -0.18396157 0.20224012 -0.16100137 -0.39378864 -0.39957708 -0.14371768 0.36332184 -0.36065418 0.3185602 -0.6979807 -0.35055533 0.39270452 -0.8562263 0.37521446 -0.35941693 0.46258825 -0.11592503 0.24399932 0.031596825 -0.37580797 -0.43831402 0.032231282 -0.21607679 0.026623981 0.07812483 -0.1911463 -0.28223848 -0.36687374 -0.3421008 -0.016304415 0.48812622 0.32726532 -0.16949776 0.54944605 0.2857992 0.22542466 -0.33636838 -0.6228076 -0.05436939 -0.0072449814 0.46138516 -0.05931782 0.23298353 0.021085983 0.0053767078 0.15744081 0.036746822 -0.0058889766 -0.15041128 -0.7210595 -0.3612115 0.4725019 -0.9513462 0.22433676
933 -0.31145027 -0.15991214 -0.37836552 0.106492475 -0.05439806 -0.19601229 -0.031661917 -0.10749427 -0.2403838 0.32396567 0.01655671 0.44810838 0.06463071 -0.5749981 -0.26553807 -0.20565 -0.040315904 -0.009577509 0.015601429 -0.09959808 -0.5001716 0.20222424 -0.35221034 0.100240976 -0.1854397 -0.43974027 -0.00023402515 -0.2884178 0.077194445 0.26571646 0.14095756 0.28987965 0.24029315 0.030615266 -0.0008636912 -0.11120962 -0.40287772 -0.42592508 0.027698452 0.19739722 0.302292 0.10901142 0.006779181 0.22180179 -0.19025707 0.25941497 0.21576215 -0.2645644 0.08022063 -0.020629669 0.3844951 0.013147202 -0.08861942 -0.068833046 0.24468243 0.022773892 0.080953814 0.049850065 -0.026927017 0.043063883 -0.24130933 -0.16791917 -0.121392265 0.33732733
928 -0.29503334 0.35907495 -0.6451868 0.23110348 0.10251878 -0.09890264 0.14303954 0.12941538 0.0005670253 0.05789356 0.35251543 0.25815153 0.010480861 -0.4709793 -0.13252044 0.20473324 0.22255982 0.025876803 -0.046672493 -0.46992615 -0.08593828 0.35360813 -0.20573756 0.2495539 0.16085626 -0.41076356 -0.18885995 -0.27825624 0.20618068 -0.07690395 0.36498013 0.041230034 0.32474476 0.2832176 0.05382386 -0.12587307 -0.04158058 -0.21732095 -0.2906124 0.35593823 0.2508019 -0.23751399 -0.13138516 0.063757256 0.3910334 0.42119515 -0.4688717 -0.11646679 0.30015892 0.02555363 0.29338202 0.09608625 -0.30195317 0.21829417 -0.3398614 -0.3167801 0.15414369 0.24059097 -0.16373979 0.23953153 -0.14388594 -0.45850268 -0.78974485 -0.53236145
489 -0.45553675 0.26719147 0.011064035 -0.12617382 0.22491099 -0.20758533 -0.28690785 -0.062059745 -0.1901747 -0.24571326 -0.04884699 0.28685522 -0.25968337 -0.43455735 -0.31599438 -0.14831603 0.45983538 -0.27001747 0.41196275 -0.7552404 -0.24455796 0.4480302 -0.89287746 0.3838132 -0.32314423 0.34692764 -0.23355679 0.32489002 -0.02309737 -0.41629452 -0.35540938 -0.059841055 -0.2664391 0.08163388 0.122320615 -0.1785966 -0.33896896 -0.23151615 -0.4271303 0.13245058 0.5560787 0.25708878 -0.16215563 0.40951893 0.37616706 0.17534399 -0.24349779 -0.58724284 -0.007733486 -0.13342595 0.4962854 -0.11937796 0.1751535 0.03770757 -0.008506247 0.19141966 0.124848284 -0.12555967 -0.2519342 -0.68003166 -0.31360722 0.5931029 -0.88194054 0.19159018
360 -0.1824638 0.071604386 -0.34515834 -0.014038134 0.04668721 -0.19490883 -0.021028617 -0.0030496388 0.17358144 0.161665 0.00010216273 0.2600815 -0.034607876 -0.274012 0.030042524 -0.2731192 0.39251372 -0.08065554 -0.1157204 0.026547205 -0.55451584 0.22606795 -0.15747955 -0.0032717849 0.011258816 0.09240517 0.07846432 0.09457417 -0.056283224 -0.09112841 0.14254646 0.26130894 -0.07224784 0.22914739 -0.17831494 0.24428993 -0.18904781 -0.0030065756 0.08875363 0.13542086 0.089419976 -0.10010178 0.11282446 0.10091245 0.1683593 0.27107212 -0.2263952 -0.4977285 -0.13509935 -0.10362169 0.26891428 -0.251255 -0.040812664 -0.03522358 0.5294779 -0.42426786 -0.17539978 -0.15478222 -0.008345159 0.19569151 -0.33160123 0.15310216 -0.3663696 -0.009957725
28 -0.39890176 0.18976331 -0.0029608663 0.29342693 0.052772433 0.1948184 -0.3966718 0.14824331 0.047687504 0.24998192 0.4064466 0.455347 0.20922992 -0.12344606 -0.25433937 -0.39629933 -0.07086338 0.24822298 0.011446212 0.12867181 -0.40719473 0.052462023 0.07160375 0.58916956 -0.27749902 -0.3734276 0.016241996 -0.6831078 0.066695556 0.02367781 0.28442183 0.3554057 0.4106755 0.08240115 -0.09502402 -0.35544077 -0.0055104867 -0.4874895 -0.20718277 0.28856322 -0.043922253 -0.08609186 0.32257316 0.5309753 -0.060642127 0.25318396 -0.10460274 -0.014114395 0.22124717 -0.13072696 0.34182587 -0.08402661 0.23997262 0.08147412 0.6097826 -0.13659814 -0.3391669 0.04319976 -0.16692169 -0.2539175 -0.3128827 -0.28416824 -0.20177695 0.20594512
650 -0.28508395 0.4421294 -0.020631785 0.24806625 0.088619046 -0.10473364 -0.095053054 -0.25697672 -0.020545715 0.20721275 -0.19125874 0.2765975 -0.10599634 -0.52567494 -0.30877262 -0.35563964 0.16395958 -0.124147974 0.034810778 -0.0027344846 -0.7309191 -0.08383104 -0.3927642 0.071649246 -0.010954833 0.016569754 -0.057037663 0.00033350778 0.27614355 0.04866429 -0.18682344 -0.3170579 -0.12774761 0.062416997 0.27306145 0.06454511 -0.11955299 -0.30025083 -0.22045968 0.1716781 0.7146957 -0.053463902 0.19561252 0.055917103 -0.0027659254 0.042279642 -0.6694936 -0.0067064716 -0.6798005 0.6313732 0.1086068 0.31613958 0.018127155 0.5246055 0.6835803 -0.57785004 -0.025894638 0.33915368 -0.31693175 -0.34686437 0.1156469 0.12994102 -1.2716992 -0.20337641
140 -0.26749098 -0.13622522 -0.20797436 0.15480047 -0.03279953 -0.49014893 -0.34085536 0.021312555 0.3604018 0.015544412 0.032434538 0.27536538 -0.005377205 -0.02477259 0.068906054 -0.21152034 0.13113785 0.083561316 -0.33157334 0.14087078 -0.40595305 0.24295895 0.21197937 0.010842223 -0.27608395 -0.14590427 0.23047619 -0.18752168 0.056430615 -0.18846594 -0.07309746 0.007212724 -0.19132015 0.1544994 0.09764097 0.11372602 -0.31056887 -0.20349175 -0.008686681 0.34375507 0.2514988 0.023308735 0.075740874 0.24214602 0.25174475 0.26929256 -0.07980317 -0.43702468 -0.1016669 -0.12178274 0.41521385 -0.27904594 0.2903094 0.1766768 0.2584094 -0.19667804 -0.1906167 0.12142398 -0.31407216 -0.03558505 0.06776284 -0.091371246 -0.5043716 -0.051636767
765 -0.21573709 0.55755967 -0.032028504 0.2200692 0.007305717 -0.08923863 -0.084471695 -0.16298364 -0.0679391 0.19293897 -0.21966858 0.12171965 -0.078865215 -0.44428122 -0.28258625 -0.41242325 0.25179404 -0.26571533 0.0829945 0.05263408 -0.55322427 -0.16315189 -0.36660647 0.07046488 -0.011161627 0.104687355 -0.22261831 -0.019390661 0.29381847 0.08752773 -0.28134108 -0.19010262 -0.10967688 0.13921717 0.32859704 -0.02728214 -0.14768119 -0.29528922 -0.25509393 0.13900825 0.7135991 0.012843313 0.26003155 0.08715003 0.13307238 0.100136474 -0.7936668 0.07894787 -0.67056304 0.6875797 0.0349659 0.25068995 -0.006472708 0.5253783 0.6758892 -0.57610327 -0.078852296 0.34316564 -0.3306915 -0.3345646 0.044007424 -0.00276615 -1.2768636 -0.29799393
519 -0.21394607 0.08409063 -0.40409938 0.16729528 0.12137831 0.15217336 0.13125537 0.0999635 0.4584872 0.2784876 0.17468911 0.5642537 0.23931852 0.20753323 0.1293245 -0.30245596 0.10439451 -0.35243368 0.010734534 -0.13525395 0.043873157 -0.23808613 -0.26749188 -0.15291198 0.26739362 -0.20546648 -0.5451045 -0.070963524 0.035554048 -0.3862199 0.17018126 0.16535565 -0.26756036 0.32180804 0.35492724 -0.1838953 -0.52442336 -0.49767715 0.061912008 0.2196409 0.43242443 -0.37459236 0.35422236 0.4496637 -0.07406697 0.06897576 -0.5176029 -0.22699265 0.17387877 -0.4253816 0.14459758 -0.4089516 0.28732714 -0.027061656 0.4676454 -0.1730077 0.32970548 -0.18383417 -0.23135233 -0.44716632 0.25277668 0.1382799 -0.14337744 0.34180036
149 -0.39890835 0.036077697 -0.29769915 -0.018157553 -0.12017188 -0.039188493 0.056119565 0.019555498 0.032517705 0.0073026116 0.020540593 0.33605415 0.019425308 -0.15418954 0.022656852 -0.15721232 0.12598518 -0.038644403 -0.16378006 -0.13068175 -0.30029455 -0.12496277 0.089966826 0.15700348 -0.31306374 0.04333879 0.16191827 -0.1023958 0.12844183 0.10248944 0.24633935 0.24203566 0.03865996 0.2133436 0.21014832 -0.029948074 -0.18427467 -0.14927116 0.012952983 -0.15350947 0.029647788 -0.22760269 0.17489721 0.12699795 0.14842053 0.37074116 -0.35005638 -0.39449733 -0.086965606 -0.09856159 0.42221335 0.19124943 0.053875353 0.08297174 0.33799118 -0.17065364 -0.009521267 -0.11019552 -0.18391357 0.24635474 -0.35794547 0.060163233 -0.4689664 -0.18913129
656 -0.44793752 -0.19630995 -0.32788903 0.33127788 -0.066684365 -0.3426657 0.006676613 -0.12981687 -0.14162719 0.41153982 0.09161977 0.42949882 0.1002938 -0.5760436 -0.18566875 -0.23702411 0.14056931 0.008774088 0.25971943 -0.08595983 -0.6125822 0.19932893 0.024697127 0.27745348 0.07421414 -0.5217905 0.04691377 -0.27222922 0.063831195 0.22825176 -0.0094056595 0.3431162 0.0685792 0.049395856 0.070497006 -0.21285303 -0.42351612 -0.4840144 0.018699482 0.22671723 0.14938542 -0.25021416 0.12213785 0.29528558 -0.22196902 0.23841207 0.091684215 -0.06465172 0.08730975 0.012776832 0.4002577 -0.08885689 -0.017098706 -0.12175584 0.3963669 -0.0075795823 0.2612066 0.080407575 -0.09589925 -0.025902398 -0.31604066 -0.0006621659 -0.0188265 0.47428444
258 -0.08404784 0.021126596 -0.29162934 -0.10470604 -0.007163346 -0.02210879 0.14154631 0.09898134 0.11034561 0.27282137 -0.024901824 0.39635968 0.13171314 -0.56348985 -0.029924251 -0.2228409 0.319412 -0.12917607 0.074984394 -0.13377851 -0.25605607 0.27724138 -0.035903238 -0.040343206 0.059112087 -0.25756332 0.100287884 0.028861558 0.048563354 0.079381555 -0.028072724 0.27242753 -0.16838853 0.15658459 -0.077453606 0.25093603 -0.1355912 -0.06517344 -0.059248883 -0.002840441 0.18225148 -0.11233551 0.06285135 0.23279405 0.14285627 0.30964854 -0.28968045 -0.51168066 -0.10264372 0.006748556 0.50801426 -0.20965393 -0.08798892 -0.1267538 0.38664433 -0.22085668 -0.2607806 -0.1229538 0.06032335 0.2660162 -0.44833964 0.16980708 -0.45258343 0.038121425
813 -0.3548884 0.16248845 0.09128617 0.025435826 -0.22516555 -0.18641336 -0.16105983 -0.19477698 0.009834831 0.10155539 0.532654 0.5790353 -0.1200434 -0.02615541 -0.13810767 -0.12641425 0.16907267 -0.19225848 -0.042440787 -0.31968987 -0.10521282 0.38666984 -0.16505945 0.008459266 -0.12463233 0.27433816 0.08424965 0.5199438 -0.072066285 -0.22999242 -0.099475406 0.41360945 -0.17327447 0.43425432 0.14365593 0.25807887 -0.30456427 -0.61001015 -0.012154164 0.15207396 0.10348105 0.08028407 0.19619109 0.116274565 0.009816363 0.40049446 -0.24476019 -0.18665801 -0.2276297 -0.09608693 0.39651653 0.053990215 -0.3327859 -0.08425141 0.3008943 -0.21038304 -0.3104322 0.12705499 0.02629324 0.09325079 -0.2555143 -0.18224458 -0.50171375 -0.02572954
386 -0.4064904 0.18280242 -0.5613155 0.06825325 0.2671433 -0.046563394 -0.1899464 -0.232999 0.50715953 0.13991427 0.07566283 0.21413334 0.21721594 -0.11228032 -0.027052818 -0.25193718 0.29295734 0.02059992 0.021423226 0.03311256 -0.70316494 0.38023388 -0.45954767 -0.018422663 0.040787723 -0.050023053 -0.36111286 0.20322321 -0.05540254 -0.10644425 0.27753562 0.07309057 0.2596076 0.24690248 0.009251197 0.20607765 -0.24632215 -0.009119392 0.26660082 0.08726197 0.060342196 -0.15754876 0.20798907 0.14138049 0.38791236 -0.14035654 0.10603603 -0.24120592 0.23910257 -0.16242194 0.08240727 -0.2916543 0.02908606 -0.48604524 0.36325416 -0.52299017 0.19389139 0.31031373 -0.32783607 0.01502336 -0.25833496 0.17787105 -0.50398916 0.48091328
641 -0.14291652 0.26097357 -0.26980326 0.20154186 0.18632211 0.0786297 -0.09968697 -0.18150744 0.43495363 -0.053391382 -0.13956624 0.17616211 0.3597685 0.09100635 -0.012566242 -0.37083274 0.23165858 -0.16414428 -0.052033428 -0.08171949 -0.64180297 0.11948916 -0.32730588 0.0095639005 -0.15816729 -0.008725213 -0.07174887 0.2728745 -0.006538474 -0.06529808 -0.00014491356 -0.06879898 0.29519993 0.33071032 -0.033676066 -0.011007483 -0.198163 -0.23941451 0.32129583 0.19206071 0.026030546 -0.37927112 0.221745 0.019958323 0.29237583 0.07252109 0.029835563 -0.34236908 0.009922109 -0.1139026 0.16418158 -0.26474556 0.031650815 -0.5764076 0.6220027 -0.68411756 0.0715367 0.37229386 -0.3995204 -0.110804945 -0.43848413 -0.014517851 -0.5044805 0.26518744
373 -0.80130833 -0.042596508 -0.40086007 0.19987264 -0.086424224 -0.37418044 0.018236302 -0.056763288 -0.089208186 0.17162843 -0.28016445 -0.2878838 -0.037518185 -0.42699268 0.025327204 -0.35447726 0.09558922 -0.34042916 -0.12540634 -0.0029404766 -0.35735476 0.090290844 -0.751694 -0.33884236 0.26273924 0.041004278 -0.23845232 0.2907988 0.005473028 -0.2010266 0.35379675 0.42716244 -0.50696766 0.18981889 -0.079206295 -0.061955493 -0.36401302 -0.48824975 0.073354535 0.08983595 -0.050543196 0.36084858 -0.049238496 0.45960483 -0.0346036 0.3152241 -0.26752633 -0.123872176 0.123556025 -0.18201998 0.15437275 -0.3603798 0.1646096 0.0066430946 0.06558514 -0.35927162 0.2858048 -0.18164499 -0.09936148 -0.67762434 -0.3603101 -0.185806 -0.48463765 -0.23336007
306 -0.36941275 0.05147519 -0.13433023 0.20815308 0.07236719 0.21256207 -0.068618625 0.069997124 0.03216921 -0.038860194 -0.07992333 0.25795892 0.29927757 -0.12833118 0.06662934 -0.1903122 0.16191296 -0.51305705 -0.10060832 -0.010764933 -0.13986658 0.081233546 0.1022853 0.1360501 -0.16260946 -0.36982685 -0.10906825 -0.13037647 0.03163421 0.19641903 0.12928264 0.33300936 -0.06901812 0.13303415 0.30715883 0.15992059 -0.061386205 -0.3399675 0.20029432 -0.088113084 0.017201655 -0.09655381 0.1749733 0.27313408 0.09731508 0.18801053 -0.14926228 -0.6717642 -0.24581137 -0.22280583 0.17526838 0.10219898 -0.023069365 -0.088114224 0.22201993 0.020698644 -0.04533479 0.0021582395 -0.041123576 0.29528573 0.13071556 0.03233468 -0.5955842 0.0895308
52 0.09506555 0.20994368 0.07974573 0.014639635 -0.09177804 -0.12698114 0.11216866 -0.33938012 0.0999434 -0.054350197 -0.075623 0.32328606 0.033303235 -0.15108234 -0.2938899 -0.19072358 -0.04159383 -0.093482405 0.13208121 -0.043926824 -0.48825082 -0.036356993 -0.40507507 0.07664572 -0.028200213 0.15316258 0.19930169 0.14030378 0.15380594 0.15887964 -0.06917897 -0.19709714 0.045686103 0.19191283 0.34407213 -0.06794079 -0.1271439 -0.45933357 -0.09942141 0.3196635 0.5043441 -0.041246 0.18402885 -0.021247163 0.07450054 0.35549125 -0.29510194 0.043833967 -0.52637386 0.12909728 0.26753473 0.17865664 0.053899683 0.5710355 0.51969224 -0.7075671 -0.1341567 -0.059611797 -0.118565835 -0.2261752 -0.20999889 0.0721518 -0.4976376 -0.33571044
129 -0.40532196 0.14802495 0.043646917 -0.04945404 0.15355222 -0.2079677 -0.18583493 0.023820184 -0.24845201 -0.23824775 -0.17816553 0.22558609 -0.21324095 -0.5047129 -0.35919535 -0.14659268 0.4533658 -0.31785858 0.28259194 -0.70126003 -0.28520495 0.44354004 -0.86388254 0.4400306 -0.4359906 0.29570803 -0.09161293 0.18418378 0.04904257 -0.30773273 -0.35659617 0.0066508125 -0.22535579 0.10015293 0.12660132 -0.21170332 -0.2049031 -0.25371206 -0.27211866 0.07094804 0.41051227 0.35529843 -0.17962295 0.47202817 0.28011057 0.18978009 -0.30795297 -0.59125143 0.0078954045 -0.11071356 0.43150112 -0.0036764396 0.13792259 0.019492762 -0.031049032 0.23464057 0.09250393 -0.018483553 -0.17075573 -0.67646664 -0.42149982 0.5005582 -0.8730076 0.22407019
756 -0.2620449 0.5181628 0.048410203 0.22920652 0.0876833 -0.04886762 -0.13106304 -0.118479416 0.014263516 0.19089493 -0.18993022 0.17530425 -0.09200579 -0.43857786 -0.29958865 -0.40078342 0.23844889 -0.23086768 0.08677163 0.07874136 -0.6407063 -0.122077875 -0.25869784 0.21189792 -0.08356064 0.09630104 -0.1302749 0.0035315366 0.23449741 0.06531119 -0.38448122 -0.24604933 -0.1491583 0.017178781 0.22775017 -0.07609675 -0.15139788 -0.30536023 -0.20174526 0.106459916 0.8187119 0.030701784 0.15994981 0.18039519 -0.027404753 -0.0881066 -0.7545736 -0.062466886 -0.5934685 0.7255698 0.180796 0.1896781 0.07923918 0.5387229 0.6841364 -0.47068974 -0.07091672 0.34270787 -0.19204491 -0.43000668 0.13158308 0.20055622 -1.1764246 -0.07761396
174 -0.37020028 -0.083252594 -0.19823767 -0.02555683 0.09082412 -0.025720669 0.03844201 -0.271722 -0.15685202 -0.049724497 0.14242363 0.32931152 0.033917416 -0.13553892 -0.046447277 -0.118421696 0.115810215 -0.14845698 -0.3278836 -0.34269226 -0.17561327 0.15404327 -0.36447918 0.082663424 -0.0014192434 -0.20924285 0.09977872 0.054461736 0.08330256 -0.120580524 -0.1298645 0.26808235 0.022823203 0.28909945 0.25287026 0.051832404 -0.096668705 -0.11561515 0.06636008 -0.03113918 0.1578651 -0.30069837 0.041740503 0.19361347 0.14841586 0.33391094 -0.23739906 -0.47057635 -0.013541427 0.0167188 0.19651611 -0.039245736 0.049591903 -0.12650712 0.25556245 -0.13616538 0.012030243 -0.08786177 -0.12596908 -0.15580866 0.09519449 -0.08593233 -0.42841402 0.113609955
327 -0.022824612 0.12297733 -0.29896718 0.010219555 0.031706296 0.05378892 0.056074232 -0.11982569 0.17522 0.06417914 0.05278746 0.46984932 0.14626896 -0.4914484 -0.21222022 -0.25566489 0.3521122 0.0066847485 -0.03360528 -0.11846201 -0.4086856 0.17859094 0.06565141 0.08646725 0.010276441 -0.09346033 0.042905144 -0.058534145 0.036414854 0.07708199 0.0045622857 0.08698995 -0.3022866 0.39216143 -0.0027223227 0.2562937 -0.11137209 0.07185932 -0.08636803 0.020504814 0.17903534 -0.23371652 0.14269191 0.2539765 0.11450809 0.250924 -0.26398104 -0.48975357 -0.07100545 -0.037505124 0.51267964 -0.0939523 -0.063783735 -0.070110515 0.20041448 -0.10650145 -0.13951273 0.020288728 0.0064675133 0.18014555 -0.44362414 0.16535515 -0.3945082 0.14555533
946 -0.22268689 0.0169527 -0.15860853 0.004432041 0.057034314 0.08762021 -0.17267832 -0.20493475 0.21078813 -0.11537041 0.09491566 0.24051535 0.3107027 -0.24692026 -0.007884148 -0.13837798 0.106008716 -0.19301102 0.12536925 -0.19143277 -0.67239267 0.48592603 -0.3016733 0.16638274 -0.0632264 -0.036452755 -0.0008540283 0.15414664 -0.0959402 -0.17660469 -0.023910487 -0.01579854 -0.075487494 0.48903993 0.11132559 0.14846393 -0.14808041 -0.25408423 -0.014365184 0.031472024 -0.011550547 -0.15221812 0.098146334 -0.03245535 0.5534467 0.008261538 -0.12620798 -0.1598788 0.06328531 -0.28847146 -0.05031024 -0.14024271 -0.0011716915 -0.7408293 0.31244552 -0.43424222 0.06329971 0.35653666 -0.3383396 -0.13637556 -0.3477863 0.24461952 -0.46963036 0.25714427
815 -0.34182444 -0.115457885 -0.14845096 0.0002941698 -0.30691075 -0.17131025 0.05791853 -0.1542984 0.10169975 0.03967238 0.17628065 0.6006882 0.081763305 0.018947607 -0.09009603 -0.15287793 0.16248241 -0.24076688 -0.1376036 -0.2814486 -0.3653784 0.22872673 -0.11036549 0.116636604 -0.21390766 0.24019204 0.14770094 0.16765445 -0.03287086 -0.033705957 -0.054620992 0.21652056 -0.060987934 0.54421973 0.23162052 0.06551021 -0.16986214 -0.535915 0.026452852 0.1715654 0.022967193 -0.11310662 0.2676455 0.030543579 0.13364677 0.2466664 -0.24540031 -0.12994188 -0.4210116 -0.16681895 0.25022784 0.10257507 -0.22195956 -0.114276774 0.5019705 -0.32856756 -0.25068635 0.20846619 -0.15169199 -0.023319846 -0.35668758 -0.112438194 -0.18985532 -0.048102424
68 -0.41659573 0.15401314 -0.05338265 0.24059899 0.10297725 0.29343998 0.01159661 -0.21037209 0.006275575 -0.0068166605 -0.038324207 0.43253925 4.0489125e-05 -0.48663357 0.045379177 -0.28789496 0.073470436 0.037958875 0.20917164 -0.13201301 -0.07957265 -0.024974944 -0.29672357 -0.15304388 -0.20101306 -0.2373102 -0.11173567 0.19713631 0.056102794 0.1527057 0.21688195 -0.031333376 -0.1709886 0.34427884 0.30413172 0.070269704 -0.16481107 -0.25781775 0.11964774 0.12110615 0.25946352 -0.05992588 0.120478585 0.13390073 0.05199361 0.36248714 0.077719055 -0.1283383 -0.087175705 -0.2867666 0.326137 -0.06576749 -0.1595626 -0.096442975 0.5192192 -0.3175025 0.17588483 -0.28781885 -0.3308457 0.1181197 -0.25724494 0.10446554 -0.31561646 -0.016981414
468 -0.27895197 0.15562563 -0.48778403 0.12254767 0.12076423 0.10857839 0.2918963 -0.17649928 0.3479479 -0.042639125 0.20937467 0.5062592 0.084142886 0.19375041 -0.1591689 -0.33239365 0.15643847 -0.27673593 0.2040933 -0.104600124 0.00055924954 -0.14347947 -0.14873305 0.011731697 0.24788228 -0.25513086 -0.3225729 -0.09514735 0.21582225 0.008024996 -0.21535675 0.22630833 0.02690206 0.32612208 0.6198796 -0.21122399 -0.56617737 -0.4522007 0.07907681 0.048381247 0.37192783 -0.53419924 0.039178867 0.43224457 0.18374786 0.5782266 -0.47953072 -0.010698719 0.308297 -0.12282548 0.4200239 -0.19340083 0.17448686 -0.030124962 0.52444434 -0.27398154 0.22755349 -0.010590372 -0.12883009 -0.3427634 0.016533555 -0.0407756 -0.061852157 0.4866806
391 -0.10911651 0.3120961 -0.5390932 0.21114038 0.065827355 -0.0595038 0.09627123 0.14883867 0.24262466 0.032489736 0.39572892 0.03707517 0.100303456 -0.41426533 -0.15926571 0.29300672 0.26220986 0.005608271 -0.07612169 -0.4645786 -0.059446346 0.19556324 -0.2435464 0.33740807 -0.028976329 -0.37723362 -0.25348365 -0.41328776 0.23738499 -0.24598685 0.48722878 -0.032863583 0.20816371 0.37797564 0.051896695 0.0032136491 -0.13753104 -0.21947825 -0.21828894 0.33813995 0.22058484 -0.14128575 0.022236481 0.24405968 0.26660502 0.5542147 -0.5765708 -0.21166964 0.3052271 -0.12062695 0.29713902 0.27585432 -0.1761537 0.2632038 -0.4143015 -0.46491784 0.1897164 0.13408327 -0.17172031 0.27875593 -0.2719242 -0.5311716 -0.8340066 -0.58157814
331 -0.2688665 0.13450485 -0.2780152 0.1961838 -0.12368714 0.13090022 0.069360204 0.016960714 -0.029065821 0.019579932 -0.042085268 0.41927516 0.062559225 -0.2834965 -0.17069112 -0.31281447 0.17378065 -0.084439695 -0.10898542 -0.16578479 -0.22152054 0.05111411 -0.0038230007 0.26015633 -0.2617466 -0.09147439 0.13820064 -0.04795 0.1350776 0.1128478 0.17979155 0.2837866 0.1410025 0.3412382 0.13716757 0.056564953 -0.19521257 -0.18128213 -0.04300752 -0.07578232 0.00030352455 -0.18811722 0.115410656 0.31734183 0.11215872 0.29109642 -0.091800675 -0.32204628 0.023237512 -0.055228837 0.26579374 0.15267073 -0.055460308 -0.16561128 0.24151921 -0.14467283 0.081588075 0.16948487 -0.2624802 0.2214845 -0.22512278 -0.12156053 -0.39184687 -0.0029557873
603 -0.18739448 -0.31279156 -0.11593201 0.14736551 0.14793086 -0.31473392 -0.14063033 -0.1822097 0.3215295 0.02858751 0.17259969 0.19176027 0.114565074 -0.16770798 -0.13772467 -0.10832586 0.017207442 0.26427063 -0.5352212 -0.06008298 -0.37953278 0.08716336 -0.04665969 0.008185147 -0.22551472 -0.20088147 0.10041704 0.09999516 0.2243394 -0.13077588 0.054366868 0.1090179 -0.23649366 0.16988358 0.2630976 0.075417146 -0.2056658 -0.10663926 0.020424046 0.3412837 0.14731799 0.14341575 -0.047494575 0.13124053 0.39950818 0.400853 0.089520484 -0.4624563 -0.08812367 -0.047807686 0.46874285 -0.2554375 0.21681735 0.17222148 0.31575814 -0.11167457 -0.20233616 0.05542516 -0.33882418 0.067119054 0.10627936 -0.05584171 -0.59658194 -0.12451092
1086 -0.47866046 0.13209999 0.020831967 0.37653604 -0.0005187501 0.20156285 -0.5540317 -0.019428575 -0.022490019 0.22387531 0.2711977 0.50616044 0.23527443 -0.20041248 -0.3394319 -0.438879 0.045638237 0.25686264 0.1299413 -0.100791715 -0.37981576 0.21017238 0.14148952 0.58733684 -0.2748999 -0.39291614 0.19882888 -0.5010685 0.110825546 0.031649116 0.11435013 0.3993532 0.2941061 0.09328713 -0.2785087 -0.20299508 -0.05067721 -0.38946182 -0.22230184 0.15336792 -0.034254264 -0.22859575 0.21297516 0.59753376 -0.15582636 0.2768237 -0.093406975 0.017618181 0.17376606 -0.036291867 0.37750024 -0.1375239 0.25880975 -0.03665044 0.5140614 -0.08103345 -0.20607665 0.12423162 -0.18614101 -0.22642903 -0.36262003 -0.1540626 -0.113676734 0.25050497
491 -0.35452867 0.27012774 -0.06704668 -0.09401041 0.29735202 -0.18982862 -0.18105707 -0.013088482 -0.15858027 -0.25128764 -0.066125646 0.21812733 -0.18109097 -0.41198504 -0.3798855 -0.1285321 0.45845976 -0.17157753 0.3079844 -0.70237863 -0.24873282 0.5418037 -0.7142197 0.36668384 -0.3125621 0.2766609 -0.14942461 0.31679255 -0.051175103 -0.3016939 -0.45236334 -0.016993893 -0.18040839 -0.0064806817 0.14242512 -0.20233278 -0.25360116 -0.1946794 -0.35057947 -0.043359485 0.46713635 0.3874325 -0.028769214 0.58997864 0.3902762 0.21568796 -0.20309725 -0.76728606 0.12150953 -0.08350285 0.6017143 -0.28381154 0.06946549 0.020691287 -0.022255281 0.16397958 0.13761619 -0.1421476 -0.23561063 -0.71755606 -0.34134743 0.58616024 -0.81605643 0.25127432
768 -0.6647041 0.06577473 -0.40529224 0.19973403 -0.027747622 -0.28050876 -0.019299375 -0.07538189 -0.0145182405 0.03977538 -0.26551133 -0.32292673 -0.15631278 -0.4743502 0.22774562 -0.3239568 0.20805693 -0.33542693 -0.06339851 -0.123551026 -0.23970668 0.06553745 -0.7598578 -0.22909698 0.3496298 -0.04452474 -0.2537997 0.36256 -0.079087704 -0.2722098 0.32639617 0.4040663 -0.6230138 0.26621702 -0.15725742 -0.028217131 -0.4386609 -0.5458435 0.040387608 0.11478938 -0.009666739 0.2824245 -0.024699168 0.46473396 0.14647564 0.35396466 -0.35601875 -0.1569294 0.12678388 -0.22693948 0.06324063 -0.39138964 0.2593079 -0.029398995 0.13017243 -0.33038452 0.23628026 -0.20169789 -0.14539154 -0.8032275 -0.33441195 -0.18918231 -0.43402258 -0.23210612
631 -0.5386169 -0.4170381 -0.022884704 -0.13533048 0.043375753 -0.37392035 0.120061144 0.17566814 -0.0927164 0.20848647 0.3644427 0.571694 -0.06405836 0.044353526 -0.3240493 0.0023619726 0.3912824 -0.3060251 -0.0808592 -0.19915177 -0.30919546 0.16485363 0.09848023 0.004254768 0.099416114 -0.22884448 -0.082556404 0.07985424 0.17258367 -0.1246779 -0.06386824 -0.051464867 -0.2690682 0.673179 0.018646 0.1783707 0.08400031 -0.21434952 0.10563558 0.31458494 0.15624738 -0.23517947 0.31814963 -0.02329219 -0.056739092 0.06533925 -0.30078432 -0.20447022 -0.19529308 -0.36245316 0.07331955 0.1393954 0.028240645 -0.05859088 0.4047999 -0.07622888 0.0666952 -0.20841359 -0.73583376 -0.12973586 -0.44883648 -0.31817883 -0.7303695 0.37865975
873 -0.2512746 0.16912983 0.21436705 0.025155196 -0.21375279 -0.25774643 -0.06908805 -0.09036189 0.19185115 0.11815478 0.3285109 0.54504746 -0.32660863 -0.094958656 -0.05980475 -0.23060694 0.33487323 -0.27975634 0.35204247 -0.38999423 0.021808235 0.33090153 -0.12764266 0.03971782 -0.28689614 0.5371241 0.071851805 0.54883426 -0.10643825 -0.31750306 -0.26995224 0.2949835 -0.07294516 0.21976054 0.07498375 0.08278095 -0.3063324 -0.74774086 -0.11567321 0.23112014 0.12815525 0.40209916 -0.050710306 0.2743083 -0.025292583 0.37002495 -0.20310977 -0.42417142 -0.3092133 0.015989715 0.41792262 -0.07575228 -0.34247127 -0.15629892 0.18288288 -0.08960657 0.018273292 0.092079744 -0.18378255 -0.10980091 -0.2647583 0.113501616 -0.6208096 0.12808272
128 -0.256302 0.22713047 0.06549318 -0.14307179 0.104738876 -0.24118128 -0.14326937 0.0735984 -0.22447625 -0.2327723 0.056833852 0.09639032 -0.23463814 -0.47688827 -0.3513398 -0.07345749 0.33020282 -0.24218014 0.29628712 -0.73088205 -0.20571454 0.48014295 -0.73477626 0.36865762 -0.26466274 0.2998991 -0.18651392 0.19508357 -0.052385826 -0.3436545 -0.26471832 -0.033830483 -0.15405089 0.07991941 0.023505641 -0.20296013 -0.2407755 -0.26760918 -0.34511024 0.03869057 0.5345474 0.42303836 2.0356569e-05 0.42202413 0.39122736 0.20604543 -0.28025812 -0.5754675 -0.015014987 -0.13366921 0.5426418 -0.10500327 0.013410245 0.026508046 -0.07788081 0.09716177 0.14661321 -0.0695966 -0.22097914 -0.58859533 -0.35148028 0.46400294 -0.9468458 0.04510501
361 -0.25250572 0.009171017 -0.17082737 0.04076487 -0.040079575 -0.1261569 0.06556495 -0.10166939 0.16055836 -0.038535602 0.01712687 0.22014974 0.02371617 -0.3240266 -0.017269505 -0.28381371 0.33005822 -0.17522411 -0.06590849 -0.09129218 -0.39210674 0.24846266 -0.108815655 0.08634332 0.0379762 -0.007555663 0.086648054 -0.03510339 0.09518239 -0.10055801 -0.033982985 0.19662121 -0.20375101 0.37340894 0.020333353 0.13570808 -0.24100928 -0.009548503 -0.05864946 -0.13840914 0.090289615 -0.19940045 0.14805508 0.19894916 0.28739658 0.24828033 -0.3696725 -0.30458573 -0.10004269 -0.017479727 0.051350936 -0.2224092 0.027855724 -0.29318464 0.2989358 -0.2907626 0.03163079 0.025893558 -0.13031006 -0.033543635 -0.093304545 -0.06483811 -0.43390524 0.128947
929 -0.2665256 0.51975214 -0.12052264 0.26799512 0.10694983 -0.10177367 0.006157352 -0.19657499 0.108372174 0.18900974 -0.21939796 0.1508736 -0.107172996 -0.3906923 -0.2721524 -0.43255597 0.24462686 -0.28372377 0.1134542 0.01385794 -0.5699512 -0.18002665 -0.40069422 0.053019524 0.08590985 0.1443445 -0.13366851 -0.009957659 0.3035795 -0.028154433 -0.23257507 -0.3464229 -0.21920545 0.123889245 0.17066984 -0.009704602 -0.15472889 -0.30680382 -0.23350097 0.084336355 0.84543616 -0.20921592 0.18924505 0.13248701 0.08220426 0.07287382 -0.8251805 -0.003902861 -0.64767957 0.64041924 0.13011487 0.19230993 0.05140616 0.54816145 0.70539796 -0.63673085 -0.0076561854 0.28696647 -0.27591646 -0.5368459 0.05082461 0.07109898 -1.30287 -0.2634733
69 -0.6257362 0.12469882 -0.017509276 0.23812608 -0.09364946 0.29365534 0.101472996 -0.20917024 0.041352056 0.061562017 -0.1069871 0.49225956 -0.1062017 -0.4303944 0.09705183 -0.2305781 0.23860669 0.19385697 0.28785637 -0.15212236 -0.20309359 -0.09455878 -0.07282532 -0.28083947 -0.15451449 -0.34709904 -0.038494486 0.29867163 0.18227614 0.2029709 0.16681106 -0.06963143 -0.16339862 0.49830317 0.2719185 0.13688026 -0.24973315 -0.19163635 -0.0942981 0.37725976 0.30509773 0.029748911 0.19346128 0.014152263 0.0062843547 0.24169922 0.012011003 -0.023160728 -0.034908764 -0.3793731 0.19993398 -0.05517289 -0.25436786 0.094791606 0.46792117 -0.37471715 0.2278904 -0.3047873 -0.5768313 -0.065523535 -0.1980695 0.18597952 -0.39321983 -0.13776642
473 -0.22853562 0.01708282 -0.23051912 0.050342 -0.026605828 0.08234169 -0.01792086 -0.118072085 0.12423927 0.13265611 -0.03471275 0.3079113 0.006241026 -0.4245085 -0.03806957 -0.24938719 0.4547978 -0.0020423452 -0.07870652 -0.13471258 -0.43431744 0.12658606 -0.08516383 0.01251932 -0.06282129 -0.10976866 0.072707996 0.15325436 0.099977136 0.18264881 0.05956708 0.23181868 -0.21622096 0.47583163 -0.035773985 0.3032423 -0.15823375 -0.010547486 0.022187592 0.08822216 0.08668768 -0.2198116 0.1461098 0.25115585 0.14640631 0.33706564 -0.1629114 -0.47108066 -0.20812234 -0.15461165 0.50167084 -0.00030828806 -0.17058106 -0.008979376 0.36030707 -0.13942355 -0.19162008 0.006552644 0.027386624 0.13303855 -0.44811982 0.1237758 -0.2597941 -0.065670885
125 -0.22111256 0.08263485 -0.010691309 -0.086742006 0.2904831 -0.23385969 -0.068995684 -0.0006416267 -0.2481314 -0.1570495 0.004191942 0.22463992 -0.120374925 -0.47689024 -0.38627493 -0.08060975 0.31684956 -0.251913 0.21242829 -0.6995572 -0.21353893 0.44285598 -0.65565735 0.38674027 -0.14382157 0.23958112 -0.18571678 0.22332458 -0.00054846494 -0.23076825 -0.42683023 0.013372813 -0.24888535 -0.033190325 0.28978267 -0.1983839 -0.26197466 -0.22041602 -0.2718538 -0.005543174 0.5519445 0.37757757 0.026445113 0.48694274 0.3571332 0.12334632 -0.28361097 -0.7128148 0.042020846 -0.05781686 0.47616956 -0.14447518 0.087330304 0.102990344 -0.07804812 0.086406685 0.1516176 -0.00044263032 -0.2841947 -0.77054334 -0.3613503 0.5187888 -0.87303084 0.13991602
629 -0.2771157 -0.20633838 -0.10487955 -0.1833111 0.08847469 -0.34397936 -0.01656816 0.13732141 -0.036570158 0.1590761 0.27738932 0.6263664 -0.036480077 0.111882925 -0.20954998 -0.14828561 0.3867942 -0.37069118 0.0085584 -0.08192605 -0.3329925 0.34144294 0.06416181 -0.0423874 -0.08684684 -0.19777022 -0.12499375 -0.021922046 0.12597299 -0.23503646 -0.1516618 -0.07858073 -0.26094228 0.7917082 -0.0709644 0.25887942 0.07527588 -0.15702121 0.151407 0.25809053 0.08538261 -0.31560653 0.32809985 -0.1073321 -0.02509413 0.052367195 -0.45804197 -0.1765929 -0.18103528 -0.33876958 0.22360379 0.098809 -0.057367276 -0.06775762 0.44313353 -0.17237568 0.24863444 -0.29569978 -0.70893884 -0.10359557 -0.42282084 -0.4092623 -0.68909925 0.27446583
895 -0.33606884 -0.0008248878 -0.09793698 0.10072977 0.09017679 0.19084547 0.10494495 -0.05135619 0.38608325 0.015570199 -0.062409513 0.13379778 0.24093384 -0.098613136 0.109914534 -0.06855677 0.031763267 -0.10417063 -0.28833506 -0.25710717 -0.14419863 -0.04645649 -0.4468869 0.05029306 -0.15252005 0.045085527 0.13056922 0.2999291 -0.027467761 0.011056367 -0.22348902 0.14656034 -0.082786314 0.7238339 0.16043578 -0.2561739 -0.11892563 -0.46111432 0.23175552 0.3193296 0.16425988 -0.5740318 0.1259048 0.25503692 0.11449751 0.1811504 -0.26792052 -0.3430694 0.043153543 -0.4048469 0.34376273 -0.1388119 0.016204864 -0.2710003 0.43960378 -0.4726978 -0.058351614 0.23458926 -0.029450703 -0.25642967 -0.5052944 -0.2544358 -0.31108657 0.14920028
773 -0.04994316 0.13942195 0.010265379 -0.31028515 0.018139157 0.23987666 0.061374012 -0.20707625 0.61281675 0.30229518 -0.09569791 0.49272546 0.016315773 -0.26439172 -0.00031531003 -0.34381443 0.20049755 0.4620132 0.25687337 0.084461965 -0.19406429 0.26926666 -0.30413538 -0.096575186 -0.30234113 -0.32589704 -0.006248434 0.07572687 0.17768717 0.027215697 0.15854196 -0.14333525 0.16808228 0.42580128 0.09204639 0.12316628 -0.19332348 -0.053011972 0.015050484 -0.046026774 0.3377394 -0.16261956 0.25407973 0.2962898 0.42490172 0.3177247 -0.21978629 -0.026482584 0.08549384 -0.07102931 0.38692132 -0.16283761 -0.17092235 -0.069309734 0.4002151 -0.113008775 0.16670868 -0.06253731 -0.4090177 0.05994974 -0.2296108 -0.1439213 -0.45464826 0.36411223
979 -0.22574832 0.09817578 -0.14119141 -0.006227532 -0.010631205 -0.15079123 -0.019735705 0.04858586 0.03342597 0.24525866 -0.07652673 0.30872378 -0.12740968 -0.20486301 0.05014844 -0.19569997 0.32924178 -0.10664818 -0.060706757 -0.012477474 -0.44637802 0.12584883 0.06056744 0.04030508 -0.071934044 -0.16492286 0.09626722 0.062904604 0.0062787607 0.009669393 0.06464681 0.23595618 -0.19328794 0.22407296 -0.06912571 0.2896477 -0.3901513 -0.08282551 0.11814706 0.0020258324 0.25511375 -0.21278311 -0.0030798123 0.13877451 0.061117396 0.32303286 -0.3545255 -0.51221246 -0.05929537 -0.031256035 0.30513957 -0.08765632 0.015674148 0.01441215 0.5461319 -0.30015114 -0.122754365 -0.1666823 -0.006371182 0.16653933 -0.18356006 0.089378126 -0.520968 -0.018615117
538 -0.41276383 0.024516353 -0.42997533 0.12839107 0.0050934507 -0.103620626 -0.015954625 -0.14507785 0.021025278 0.03113538 -0.04820322 0.3058122 0.06257305 -0.45099542 -0.04447688 -0.24851099 0.2559477 -0.098850176 -0.07975953 -0.1798322 -0.13040878 0.19080687 -0.12734641 -0.09475579 -0.20781799 -0.029345103 0.0806957 -0.14974467 0.015210336 -0.0073918346 0.019291122 0.097746104 -0.21149394 0.2390038 0.16966109 -0.004015525 -0.08267196 -0.038518593 -0.016970022 -0.061203454 0.14848316 -0.0030711975 0.1087102 0.22048613 0.12252102 0.5102423 -0.217909 -0.32941717 -0.18085109 -0.31408495 0.4329175 -0.015190986 -0.12457455 -0.04410687 0.42034888 -0.09197787 0.0012414859 -0.041382045 -0.11725846 0.27918607 -0.118180186 0.0043315063 -0.40939957 -0.13421561
769 -0.33033544 0.40113232 0.021055162 0.27474284 0.06275476 -0.045223013 -0.02064345 -0.2620959 0.1315016 0.19428118 -0.24796711 0.25565714 -0.03145783 -0.38759884 -0.16213295 -0.3701092 0.32509574 -0.07999323 -0.101182975 0.0006346893 -0.69215107 -0.017052876 -0.17782043 0.17195292 -0.06341044 -0.050110344 -0.122784145 0.012309856 0.33091184 0.046290316 -0.19806917 -0.26071793 -0.066300355 0.11439129 0.1897975 -0.013214727 -0.17788312 -0.1683367 -0.265925 0.12288973 0.76842475 0.067556635 0.21273364 0.060217526 0.056611475 -0.008822944 -0.5034616 -0.070481874 -0.6232224 0.65116423 0.012268985 0.033589695 -0.016296303 0.5147024 0.6748132 -0.5309797 -0.07660526 0.38160238 -0.32044387 -0.22991148 0.42421994 0.107727855 -1.1166946 -0.1731085
891 -0.5072414 0.3725285 -0.15063402 -0.13106133 -0.12002944 -0.07182304 0.22833964 -0.50542337 0.030766523 -0.0565357 -0.16132371 0.45458058 -0.37897247 -0.087571286 -0.017950356 -0.030199328 0.2819391 -0.13000101 -0.18663056 -0.1676971 -0.8674822 0.43520883 -0.06883641 0.43016368 0.026941767 -0.24468961 0.042827386 -0.1484269 0.04622874 -0.109666094 0.08321718 -0.27011627 -0.29084578 0.022470837 0.04118646 -0.20603092 -0.33210436 0.069943376 -0.20672835 -0.0667947 0.8291942 0.010794986 0.0682912 -0.062769614 0.1651457 0.037859835 -0.45859292 -0.20645335 -0.3806025 0.18650825 0.036381703 -0.49355122 0.12129903 0.1340728 0.5561345 -0.65143466 -0.19441901 0.12366875 -0.087769724 -0.06265479 0.5991765 0.011604869 -0.29850382 -0.033617392
1149 -0.15436468 0.19462879 -0.15621209 0.36920735 0.113736644 0.4136931 -0.2078779 -0.43121928 0.081498116 -0.07113276 0.25739092 0.3113364 0.28456306 -0.063651346 -0.27982223 -0.08620788 0.25634015 -0.20613416 -0.38876292 -0.3869545 -0.1671732 0.012140346 0.0052575236 0.4832549 0.075995356 0.038363047 0.026534995 0.32233167 0.19275388 0.037650384 0.34630996 0.3149513 -0.38955233 0.88028157 -0.43001804 0.31092623 -0.13010637 -0.06442816 -0.1610693 -0.17413633 0.42690274 -0.5640546 -0.1494604 0.41079226 -0.35118583 0.44334874 -0.25731456 -0.7370767 -0.16649841 0.034808572 0.16813849 0.08864145 0.019979864 -0.09158314 -0.21042027 0.19740123 0.27956852 0.3286748 -0.23255758 0.0054065865 -0.03573223 -0.03048204 -0.5506283 -0.018751655
185 -0.10262243 0.30714968 -0.43502676 0.20255685 0.02702337 0.17084403 -0.11353354 -0.0028895913 0.5564107 0.052357722 0.41120982 0.15106535 0.22120744 -0.25482687 -0.24860364 0.41530427 0.36335504 -0.021762723 0.053454462 -0.44123444 0.20547631 0.226836 -0.2576751 0.3510187 -0.21415633 -0.15698636 -0.16046499 -0.15045203 0.07015149 -0.12171793 0.31952837 0.052013393 0.099638894 0.37257147 -0.17922777 0.05277299 -0.24557327 -0.5344203 -0.24137019 0.25088042 0.13120575 0.31605598 0.32745 0.4240768 0.24654438 0.3824724 -0.66095877 -0.29750225 0.12409975 -0.1856159 0.339405 0.43373227 0.10674814 0.2805522 -0.64973575 -0.51192194 0.11479819 0.14579341 -0.18624082 0.31506357 -0.41742477 -0.33371517 -0.70581466 -0.66818535
707 -0.19053982 -0.10112724 -0.06822912 -0.16869658 -0.10538859 0.013086733 -0.07956078 0.017805079 0.17397863 -0.07467211 0.2980416 0.4349148 0.07254827 -0.4206656 -0.24679254 0.06722182 0.20926312 0.00939305 0.1781113 -0.27891657 -0.30121505 0.5170747 -0.24262384 0.055693127 -0.3533057 0.055936497 0.07551145 0.019771552 0.10499487 -0.18470243 -0.10035884 0.17005765 -0.3414625 0.4330645 0.34919456 0.25163436 -0.09795394 -0.09843244 -0.22609551 0.043794036 0.25104645 0.18065442 -0.011001742 0.14600776 0.6339216 0.12556705 -0.40386167 -0.067086846 -0.05675648 -0.108349025 0.20341766 -0.08408906 0.12322469 -0.31293932 -0.0048769186 -0.15765393 0.065997206 0.17853656 -0.2597642 -0.0023179566 -0.21980736 0.27392393 -0.4536866 0.20360364
586 -0.6439348 -0.12356795 -0.36131248 0.33023006 -0.06095572 -0.14468786 -0.36179262 0.08181106 0.1352452 0.14878108 0.016326819 0.33438703 0.35846356 -0.31448096 0.12475229 -0.28564364 0.233744 -0.14025122 -0.14089186 -0.40490392 -0.06616922 0.099494524 -0.0037670187 -0.21315153 -0.19013059 0.015743483 0.01898723 0.085793324 0.34422264 -0.076023094 -0.08972421 0.21349877 0.16970135 0.57890064 -0.020952675 0.15428813 -0.49263766 0.22935258 -0.5038721 -0.018387329 0.4126978 -0.30590442 0.3205986 0.2734485 0.378936 0.2597465 -0.099194065 0.07356315 -0.32503605 -0.25197738 0.29412615 0.16245858 -0.15532973 -0.007980869 0.4014176 0.11624921 0.15395935 0.15283816 -0.04530227 0.3120278 0.2960424 0.14173576 -0.7358581 -0.17864935
130 -0.3040487 0.21054207 0.005060668 -0.058806658 0.23827623 -0.13147782 -0.13977624 0.053393453 -0.24315174 -0.22374414 -0.038078915 0.19632994 -0.108400874 -0.45326507 -0.44550648 -0.009103401 0.2581818 -0.34216633 0.3123632 -0.6625474 -0.26429993 0.39499182 -0.73482287 0.30433398 -0.18772884 0.28568763 -0.14310385 0.34828272 -0.009667837 -0.2134281 -0.36646622 -0.05746922 -0.30809343 0.031837262 0.17059487 -0.135228 -0.41016644 -0.31345832 -0.34012508 -0.0435925 0.5045848 0.31256124 0.0033136748 0.5333649 0.4482973 0.12481069 -0.3195176 -0.6251239 -0.023659596 -0.17263283 0.4737782 -0.15941961 0.19697008 -0.09610084 -0.08125057 0.058248594 0.15862526 -0.042970486 -0.237446 -0.7651243 -0.42444688 0.4579844 -0.944888 0.15036343
351 -0.29178664 0.021602308 -0.1952621 0.061553836 -0.0449214 -0.18621376 -0.07335964 0.24364308 -0.00952558 0.06842722 0.045431763 0.065798864 0.058069233 -0.27851632 0.08036874 -0.083799824 0.038276948 -0.15472116 -0.17743541 -0.34867373 -0.20063241 0.10017421 -0.17081694 0.05558537 -0.2477551 0.06570102 0.016466532 -0.11066474 0.17979875 -0.058997523 0.12335784 0.2504318 -0.10478874 0.47690845 -0.06831005 -0.018448867 -0.2592526 -0.0472727 -0.07730574 0.1094264 0.289381 -0.1258205 0.058061037 0.26522136 -0.0048975255 0.35439673 -0.24511226 -0.33560267 -0.09330472 -0.31251425 0.33849052 0.016351772 -0.06273692 -0.010262146 0.25676078 -0.06353803 0.16343251 -0.07322232 -0.028192632 0.055284627 -0.003546809 -0.014636643 -0.5885189 -0.14363399
33 -0.5202682 -0.082134835 -0.16437483 0.12091673 -0.08501289 -0.1908083 0.004325863 -0.05651308 -0.078882284 0.3144797 0.16461466 0.48812127 0.10389572 -0.4144834 -0.010324099 -0.198148 0.025874898 -0.028853787 0.009712115 -0.23971157 -0.2346716 0.0713538 -0.005094411 0.03479014 -0.06768852 -0.23092104 0.052797843 -0.12706093 0.108767614 0.2086809 0.09609878 0.3826672 0.04707688 0.23793024 0.06744152 0.08370388 -0.25910404 -0.30144274 -0.034271337 0.158606 0.26034865 -0.014353375 0.071597785 0.20986205 -0.12783813 0.21966387 0.07945631 -0.29802883 -0.08906204 -0.10021266 0.3218378 0.005327826 -0.16329555 -0.10196134 0.22124986 -0.06751894 0.059098702 0.13780712 -0.086917184 0.13137887 -0.034888227 -0.07079326 -0.49160567 0.13781297
906 -0.29429096 -0.07697016 -0.19702117 0.10023816 0.04530015 -0.07630247 0.013409699 0.041233666 0.010267269 -0.002712208 -0.13667916 0.31788024 0.033394124 -0.25903848 -0.060911376 -0.24479339 0.11933921 -0.116615705 -0.09507904 -0.20359261 -0.40519625 -0.04142236 -0.26167879 -0.01679819 -0.17008051 -0.18013918 0.17215976 0.07506041 0.11623258 -0.06339266 -0.077454 0.16198456 -0.014048884 0.22966267 0.13142602 0.037724417 -0.4228646 -0.20777923 0.07167891 0.09668632 0.041643836 -0.33686584 -0.060482882 0.20248412 0.13917936 0.2753335 -0.22381291 -0.41349664 -0.019146547 -0.11736809 0.4152755 0.11985105 -0.0046544573 -0.14503106 0.31727093 -0.13614134 0.043711312 -0.08712856 -0.08698221 -0.13660955 -0.32538372 -0.069165014 -0.4530057 0.05442224
624 -0.15630032 -0.0075350828 -0.058935907 0.009948824 0.0861815 0.19335352 -0.10812664 -0.27607214 -0.03455253 -0.19067484 0.27008468 0.41373768 0.1776577 -0.1606299 -0.2701008 -0.068270154 0.2418066 -0.27595916 -0.14956819 -0.34589157 -0.3884616 0.23563038 -0.18589082 0.30956876 0.057226036 0.01629889 -0.038909853 0.2046139 0.17286015 0.08809439 0.15025082 0.1402221 -0.3222767 0.6950425 -0.040441297 0.26512116 -0.077688664 -0.101384096 0.0035537784 -0.01655912 0.26749182 -0.38706422 -0.014419312 0.08528467 0.02372971 0.22529532 -0.17809635 -0.5294556 -0.18809125 -0.16760844 0.18376143 0.017026298 -0.0776713 -0.16116145 -0.042837907 0.0138202105 0.20585981 0.17409796 -0.19251645 -0.024929814 -0.24226323 0.11651115 -0.5031604 0.0915265
482 -0.36930507 0.16992092 -0.012588554 0.31554002 0.38712302 0.035543174 -0.6768035 -0.18319988 -0.33747947 0.15829594 0.61159533 0.058957037 0.122500606 -0.04295416 -0.3044875 -0.18565404 -0.16174266 -0.1575345 0.49383062 0.041025378 -0.08274685 0.15695861 0.08635343 0.44867495 0.27284023 -0.51597816 -0.45020804 -0.70579743 -0.22025014 -0.41496748 0.5535176 0.48787296 0.4971349 -0.061383706 -0.1940079 -0.05637288 0.28165957 -0.7667608 -0.27552515 -0.110847436 0.1503531 -0.29310447 0.48088878 0.61826134 0.18992543 0.518102 -0.009081028 -0.36583906 0.04885475 -0.24241072 0.18098556 -0.03573062 0.43165326 0.25924596 0.6954894 0.07464037 -0.1226992 0.03493949 -0.0032173994 -0.1321197 0.16451228 0.3553949 -0.6298648 0.17726775
